{"learner":{"attributes":{"best_iteration":"293","best_score":"0.13076463955625797","scikit_learn":"{\"_estimator_type\": \"classifier\"}"},"feature_names":[],"feature_types":[],"gradient_booster":{"model":{"cats":{"enc":[],"feature_segments":[],"sorted_idx":[]},"gbtree_model_param":{"num_parallel_tree":"1","num_trees":"300"},"iteration_indptr":[0,1,2,3,4,5,6,7,8,9,10,11,12,13,14,15,16,17,18,19,20,21,22,23,24,25,26,27,28,29,30,31,32,33,34,35,36,37,38,39,40,41,42,43,44,45,46,47,48,49,50,51,52,53,54,55,56,57,58,59,60,61,62,63,64,65,66,67,68,69,70,71,72,73,74,75,76,77,78,79,80,81,82,83,84,85,86,87,88,89,90,91,92,93,94,95,96,97,98,99,100,101,102,103,104,105,106,107,108,109,110,111,112,113,114,115,116,117,118,119,120,121,122,123,124,125,126,127,128,129,130,131,132,133,134,135,136,137,138,139,140,141,142,143,144,145,146,147,148,149,150,151,152,153,154,155,156,157,158,159,160,161,162,163,164,165,166,167,168,169,170,171,172,173,174,175,176,177,178,179,180,181,182,183,184,185,186,187,188,189,190,191,192,193,194,195,196,197,198,199,200,201,202,203,204,205,206,207,208,209,210,211,212,213,214,215,216,217,218,219,220,221,222,223,224,225,226,227,228,229,230,231,232,233,234,235,236,237,238,239,240,241,242,243,244,245,246,247,248,249,250,251,252,253,254,255,256,257,258,259,260,261,262,263,264,265,266,267,268,269,270,271,272,273,274,275,276,277,278,279,280,281,282,283,284,285,286,287,288,289,290,291,292,293,294,295,296,297,298,299,300],"tree_info":[0,0,0,0,0,0,0,0,0,0,0,0,0,0,0,0,0,0,0,0,0,0,0,0,0,0,0,0,0,0,0,0,0,0,0,0,0,0,0,0,0,0,0,0,0,0,0,0,0,0,0,0,0,0,0,0,0,0,0,0,0,0,0,0,0,0,0,0,0,0,0,0,0,0,0,0,0,0,0,0,0,0,0,0,0,0,0,0,0,0,0,0,0,0,0,0,0,0,0,0,0,0,0,0,0,0,0,0,0,0,0,0,0,0,0,0,0,0,0,0,0,0,0,0,0,0,0,0,0,0,0,0,0,0,0,0,0,0,0,0,0,0,0,0,0,0,0,0,0,0,0,0,0,0,0,0,0,0,0,0,0,0,0,0,0,0,0,0,0,0,0,0,0,0,0,0,0,0,0,0,0,0,0,0,0,0,0,0,0,0,0,0,0,0,0,0,0,0,0,0,0,0,0,0,0,0,0,0,0,0,0,0,0,0,0,0,0,0,0,0,0,0,0,0,0,0,0,0,0,0,0,0,0,0,0,0,0,0,0,0,0,0,0,0,0,0,0,0,0,0,0,0,0,0,0,0,0,0,0,0,0,0,0,0,0,0,0,0,0,0,0,0,0,0,0,0,0,0,0,0,0,0,0,0,0,0,0,0,0,0,0,0,0,0,0,0,0,0,0,0],"trees":[{"base_weights":[2.609337E-3,-9.68919E-1,1.9525261E0,1.643419E-2,-1.5376604E0,-7.741303E-2,2.3578894E0,-1.3082851E0,3.614425E-1,-1.5397214E0,1.0314158E-1,2.6914775E0,1.9199462E-3,-7.745706E-2,2.1759346E0,5.804841E-1,-1.2222544E0,-7.7562355E-2,-1.3707848E0,-4.4308156E-1,2.7270813E0,2.180661E0,-4.3511754E-1,1.3528834E-1,1.37365E0,5.829848E-1,-4.7255978E-2,-7.731465E-2,2.1879647E0,-1.4818029E0,1.6697615E0,1.276949E-1,-7.3493265E-2,2.1449678E0,1.3927558E-1,-1.249745E0,1.3472693E-1,-1.3518926E0,1.3979987E0,1.1123202E-1,-4.8178893E-2,2.762841E-2,2.9477E-2,1.2946628E-1,7.31644E-2,-7.733708E-2,-4.8284505E-2,-3.591238E-2,1.07460774E-1,1.3987173E-1,6.734532E-2,-7.0273764E-2,5.1878965E-3,-7.661308E-2,-5.0294545E-2,1.391784E-1,-6.9667466E-2],"categories":[],"categories_nodes":[],"categories_segments":[],"categories_sizes":[],"default_left":[0,0,0,0,0,0,0,0,0,0,0,0,0,0,0,0,0,0,0,0,0,0,0,0,0,0,0,0,0,0,0,0,0,0,0,0,0,0,0,0,0,0,0,0,0,0,0,0,0,0,0,0,0,0,0,0,0],"id":0,"left_children":[1,3,5,7,9,-1,11,13,15,17,-1,19,21,-1,23,25,27,-1,29,31,33,35,37,-1,39,41,-1,-1,43,45,47,-1,-1,49,-1,51,-1,53,55,-1,-1,-1,-1,-1,-1,-1,-1,-1,-1,-1,-1,-1,-1,-1,-1,-1,-1],"loss_changes":[2.5992709E4,5.132244E3,6.4787695E3,1.5326798E3,4.626367E1,0E0,3.2142246E3,5.8486694E2,9.2363947E2,9.175781E0,0E0,4.0102148E2,4.8490573E2,0E0,1.5504654E1,9.470642E0,3.609649E2,0E0,1.304975E2,1.302127E2,1.1451172E2,1.5335513E2,7.147335E2,0E0,4.1955338E1,1.3977051E-1,0E0,0E0,4.4986267E0,1.0787659E1,1.7378555E1,0E0,0E0,1.6675671E2,0E0,2.6263676E0,0E0,1.613678E1,5.5270874E2,0E0,0E0,0E0,0E0,0E0,0E0,0E0,0E0,0E0,0E0,0E0,0E0,0E0,0E0,0E0,0E0,0E0,0E0],"parents":[2147483647,0,0,1,1,2,2,3,3,4,4,6,6,7,7,8,8,9,9,11,11,12,12,14,14,15,15,16,16,18,18,19,19,20,20,21,21,22,22,24,24,25,25,28,28,29,29,30,30,33,33,35,35,37,37,38,38],"right_children":[2,4,6,8,10,-1,12,14,16,18,-1,20,22,-1,24,26,28,-1,30,32,34,36,38,-1,40,42,-1,-1,44,46,48,-1,-1,50,-1,52,-1,54,56,-1,-1,-1,-1,-1,-1,-1,-1,-1,-1,-1,-1,-1,-1,-1,-1,-1,-1],"split_conditions":[-5.133277E-1,1.3074166E-1,-1.7135016E0,5.1888764E-1,2.2625022E0,-7.741303E-2,2.6719108E0,-1.1577611E0,5.3330153E-1,2.4368261E-1,1.0314158E-1,-1.182197E0,1.78007E-2,-7.745706E-2,-1.7984597E-1,-8.451147E-1,-1.1704534E0,-7.7562355E-2,-5.402074E-1,1.7365757E0,-3.3861E-1,-1.1704534E0,2.7191785E-1,1.3528834E-1,-5.402074E-1,-1.9528815E-1,-4.7255978E-2,-7.731465E-2,-2.2219883E-1,-4.3500605E-1,2.5780022E-1,1.276949E-1,-7.3493265E-2,-1.6572836E-1,1.3927558E-1,-8.550491E-1,1.3472693E-1,2.6987906E0,2.4036784E0,1.1123202E-1,-4.8178893E-2,2.762841E-2,2.9477E-2,1.2946628E-1,7.31644E-2,-7.733708E-2,-4.8284505E-2,-3.591238E-2,1.07460774E-1,1.3987173E-1,6.734532E-2,-7.0273764E-2,5.1878965E-3,-7.661308E-2,-5.0294545E-2,1.391784E-1,-6.9667466E-2],"split_indices":[6,4,8,1,4,0,6,3,1,4,0,4,4,0,4,2,3,0,6,2,6,3,4,0,6,8,0,0,4,8,4,0,0,4,0,5,0,6,4,0,0,0,0,0,0,0,0,0,0,0,0,0,0,0,0,0,0],"split_type":[0,0,0,0,0,0,0,0,0,0,0,0,0,0,0,0,0,0,0,0,0,0,0,0,0,0,0,0,0,0,0,0,0,0,0,0,0,0,0,0,0,0,0,0,0,0,0,0,0,0,0,0,0,0,0,0,0],"sum_hessian":[1.3718819E4,9.156953E3,4.5618657E3,3.3514626E3,5.80549E3,4.7311804E2,4.0887478E3,6.919208E2,2.659542E3,5.802741E3,2.7493541E0,3.581492E3,5.0725586E2,6.47702E2,4.421878E1,2.3369512E3,3.2259088E2,5.4244756E3,3.7826532E2,4.009475E1,3.5413972E3,8.408442E1,4.2317142E2,2.5202414E1,1.9016367E1,2.3337434E3,3.2075799E0,2.9509735E2,2.7493542E1,3.65435E2,1.2830319E1,9.851852E0,3.0242895E1,3.264858E2,3.2149114E3,1.0768304E1,7.331611E1,2.8226703E2,1.409044E2,1.39758835E1,5.0404825E0,4.2889926E2,1.9048442E3,1.6037899E1,1.1455643E1,3.2282E2,4.261499E1,2.0620155E0,1.0768304E1,1.782498E2,1.4823601E2,9.62274E0,1.1455642E0,1.8329028E2,9.897675E1,9.416538E1,4.673902E1],"tree_param":{"num_deleted":"0","num_feature":"9","num_nodes":"57","size_leaf_vector":"1"}},{"base_weights":[-7.12229E-4,-6.0792613E-1,1.0837957E0,7.113211E-1,-1.3338875E0,1.5939962E0,-7.5446E-2,3.5037014E-1,2.4340386E0,-1.4991132E0,-5.7073104E-1,1.0332037E0,1.2915404E-1,4.6250635E-1,-7.5025424E-2,2.5084598E0,2.1871803E0,-1.0645117E0,-1.5042279E0,2.1438649E0,-7.5429484E-2,2.2891498E0,-1.3058573E0,5.458781E-1,-7.383648E-2,1.3120929E0,2.5199664E0,-1.1674875E-2,2.3336918E0,-7.421063E-2,1.12700455E-1,-7.5462215E-2,-1.2223275E0,-7.358374E-2,1.286897E-1,2.5505826E0,1.2416656E0,-1.3774126E0,1.2006785E-1,2.7242018E-2,7.036578E-2,-2.1486621E-2,9.162932E-2,4.2898886E-2,1.2623478E-1,2.6496379E-2,-3.679032E-2,1.2661462E-1,5.2108355E-2,1.093056E-1,-7.2876185E-2,1.282047E-1,1.0307924E-1,-3.927525E-2,6.483924E-2,6.888697E-2,-7.074768E-2],"categories":[],"categories_nodes":[],"categories_segments":[],"categories_sizes":[],"default_left":[0,0,0,0,0,0,0,0,0,0,0,0,0,0,0,0,0,0,0,0,0,0,0,0,0,0,0,0,0,0,0,0,0,0,0,0,0,0,0,0,0,0,0,0,0,0,0,0,0,0,0,0,0,0,0,0,0],"id":1,"left_children":[1,3,5,7,9,11,-1,13,15,17,19,21,-1,23,-1,25,27,29,31,33,-1,35,37,39,-1,41,43,45,47,-1,-1,-1,49,-1,-1,51,53,55,-1,-1,-1,-1,-1,-1,-1,-1,-1,-1,-1,-1,-1,-1,-1,-1,-1,-1,-1],"loss_changes":[9.049589E3,8.438139E3,6.527141E3,1.9440006E3,7.1572363E2,2.2836611E3,0E0,5.376391E2,4.4641113E0,8.783203E0,2.5822827E3,7.7356157E3,0E0,3.9530542E2,0E0,2.3288574E0,4.2961975E1,8.3782104E1,4.678711E0,4.0876306E2,0E0,4.6592383E2,2.4741235E2,1.3253784E0,0E0,6.2145405E0,1.012207E0,4.045287E0,2.9410828E1,0E0,0E0,0E0,7.207619E1,0E0,0E0,3.7646484E0,3.9465088E1,9.539099E1,0E0,0E0,0E0,0E0,0E0,0E0,0E0,0E0,0E0,0E0,0E0,0E0,0E0,0E0,0E0,0E0,0E0,0E0,0E0],"parents":[2147483647,0,0,1,1,2,2,3,3,4,4,5,5,7,7,8,8,9,9,10,10,11,11,13,13,15,15,16,16,17,17,18,18,19,19,21,21,22,22,23,23,25,25,26,26,27,27,28,28,32,32,35,35,36,36,37,37],"right_children":[2,4,6,8,10,12,-1,14,16,18,20,22,-1,24,-1,26,28,30,32,34,-1,36,38,40,-1,42,44,46,48,-1,-1,-1,50,-1,-1,52,54,56,-1,-1,-1,-1,-1,-1,-1,-1,-1,-1,-1,-1,-1,-1,-1,-1,-1,-1,-1],"split_conditions":[-3.6409727E-1,1.589769E-1,2.254553E0,-1.182197E0,2.7191785E-1,2.7191785E-1,-7.5446E-2,2.254553E0,-1.0925788E-1,-5.7539374E-1,2.254553E0,2.1544737E-1,1.2915404E-1,-6.49969E-1,-7.5025424E-2,-1.1539618E0,-7.369734E-1,-7.618318E-1,-5.6296456E-1,-3.6050457E-1,-7.5429484E-2,-1.0925788E-1,9.364704E-1,-8.451147E-1,-7.383648E-2,-9.8006874E-1,-1.5729316E0,6.015356E-2,-5.6296456E-1,-7.421063E-2,1.12700455E-1,-7.5462215E-2,-3.7652647E-1,-7.358374E-2,1.286897E-1,-1.6572836E-1,-1.3669457E0,-6.5006864E-1,1.2006785E-1,2.7242018E-2,7.036578E-2,-2.1486621E-2,9.162932E-2,4.2898886E-2,1.2623478E-1,2.6496379E-2,-3.679032E-2,1.2661462E-1,5.2108355E-2,1.093056E-1,-7.2876185E-2,1.282047E-1,1.0307924E-1,-3.927525E-2,6.483924E-2,6.888697E-2,-7.074768E-2],"split_indices":[7,4,0,4,4,4,0,0,4,7,0,4,0,7,0,4,7,7,7,0,0,4,3,2,0,3,2,4,7,0,0,0,7,0,0,4,2,3,0,0,0,0,0,0,0,0,0,0,0,0,0,0,0,0,0,0,0],"split_type":[0,0,0,0,0,0,0,0,0,0,0,0,0,0,0,0,0,0,0,0,0,0,0,0,0,0,0,0,0,0,0,0,0,0,0,0,0,0,0,0,0,0,0,0,0,0,0,0,0,0,0,0,0,0,0,0,0],"sum_hessian":[1.374014E4,8.808639E3,4.931501E3,3.126696E3,5.681943E3,4.120955E3,8.1054565E2,2.5860579E3,5.4063824E2,4.6699253E3,1.01201746E3,2.6311736E3,1.4897815E3,2.4390378E3,1.4701996E2,4.0836575E2,1.3227248E2,5.6752373E1,4.613173E3,2.595305E2,7.52487E2,1.7119648E3,9.1920886E2,2.33919E3,9.98481E1,4.9860644E0,4.033797E2,8.320356E0,1.23952126E2,5.087131E1,5.881061E0,4.5282383E3,8.493488E1,2.7323902E1,2.3220657E2,1.368882E3,3.430829E2,9.024191E2,1.678972E1,2.3380056E3,1.1841525E0,1.1872663E0,3.7987983E0,1.662173E0,4.0171753E2,4.9135413E0,3.406815E0,1.065994E2,1.7352722E1,4.9471064E0,7.998778E1,1.3279458E3,4.0936127E1,8.7308E0,3.3435208E2,1.1650949E1,8.907682E2],"tree_param":{"num_deleted":"0","num_feature":"9","num_nodes":"57","size_leaf_vector":"1"}},{"base_weights":[-2.2444655E-3,-9.055139E-1,1.6852436E0,8.26508E-3,-1.4592459E0,2.0605788E0,-7.3542826E-2,5.03112E-1,-7.358732E-2,-1.4614601E0,9.2474E-2,2.2931025E0,1.6410743E-1,4.6053067E-1,1.8599014E0,-7.365335E-2,-1.2933607E0,-4.056835E-1,2.3214602E0,-4.7510928E-1,1.184386E-1,5.1950026E-1,-7.26981E-2,1.1593918E-1,1.2431053E0,-1.4018861E0,1.5640457E0,-7.130754E-2,1.1123909E-1,1.8282342E0,1.18477896E-1,2.289016E0,-1.2694105E0,3.2088324E-2,2.5562296E-2,1.0118134E-1,-5.0227065E-2,-4.3239813E-2,-7.343405E-2,-3.309161E-2,9.970071E-2,1.1844615E-1,5.788062E-2,1.1717156E-1,6.747635E-2,-7.210807E-2,-4.7233433E-2],"categories":[],"categories_nodes":[],"categories_segments":[],"categories_sizes":[],"default_left":[0,0,0,0,0,0,0,0,0,0,0,0,0,0,0,0,0,0,0,0,0,0,0,0,0,0,0,0,0,0,0,0,0,0,0,0,0,0,0,0,0,0,0,0,0,0,0],"id":2,"left_children":[1,3,5,7,9,11,-1,13,-1,15,-1,17,19,21,23,-1,25,27,29,31,-1,33,-1,-1,35,37,39,-1,-1,41,-1,43,45,-1,-1,-1,-1,-1,-1,-1,-1,-1,-1,-1,-1,-1,-1],"loss_changes":[2.081492E4,4.500622E3,5.6430107E3,2.4594856E3,4.3279297E1,1.8761836E3,0E0,1.4454431E2,0E0,8.894531E0,0E0,2.9104688E2,6.576298E2,2.763896E2,1.8699615E1,0E0,1.1560034E2,1.112636E2,8.466211E1,7.976391E2,0E0,2.0630493E0,0E0,0E0,6.2881275E1,1.1388611E1,1.4579071E1,0E0,0E0,1.1970459E2,0E0,9.864197E-1,1.4447571E1,0E0,0E0,0E0,0E0,0E0,0E0,0E0,0E0,0E0,0E0,0E0,0E0,0E0,0E0],"parents":[2147483647,0,0,1,1,2,2,3,3,4,4,5,5,7,7,9,9,11,11,12,12,13,13,14,14,16,16,17,17,18,18,19,19,21,21,24,24,25,25,26,26,29,29,31,31,32,32],"right_children":[2,4,6,8,10,12,-1,14,-1,16,-1,18,20,22,24,-1,26,28,30,32,-1,34,-1,-1,36,38,40,-1,-1,42,-1,44,46,-1,-1,-1,-1,-1,-1,-1,-1,-1,-1,-1,-1,-1,-1],"split_conditions":[-5.133277E-1,1.3074166E-1,2.254553E0,2.254553E0,2.2625022E0,2.6719108E0,-7.3542826E-2,-1.182197E0,-7.358732E-2,2.4368261E-1,9.2474E-2,-1.182197E0,2.7191785E-1,-8.451147E-1,-1.7984597E-1,-7.365335E-2,-5.402074E-1,-1.1577611E0,-3.3861E-1,1.78007E-2,1.184386E-1,-3.551001E-1,-7.26981E-2,1.1593918E-1,-5.402074E-1,2.254553E0,2.5780022E-1,-7.130754E-2,1.1123909E-1,-1.6572836E-1,1.18477896E-1,-2.4552159E-2,2.6987906E0,3.2088324E-2,2.5562296E-2,1.0118134E-1,-5.0227065E-2,-4.3239813E-2,-7.343405E-2,-3.309161E-2,9.970071E-2,1.1844615E-1,5.788062E-2,1.1717156E-1,6.747635E-2,-7.210807E-2,-4.7233433E-2],"split_indices":[6,4,0,0,4,6,0,4,0,4,0,4,4,2,4,0,6,3,6,4,0,8,0,0,6,0,4,0,0,4,0,4,6,0,0,0,0,0,0,0,0,0,0,0,0,0,0],"split_type":[0,0,0,0,0,0,0,0,0,0,0,0,0,0,0,0,0,0,0,0,0,0,0,0,0,0,0,0,0,0,0,0,0,0,0,0,0,0,0,0,0,0,0,0,0,0,0],"sum_hessian":[1.3653786E4,8.893686E3,4.7601006E3,3.3562026E3,5.5374834E3,4.254488E3,5.0561252E2,2.5157222E3,8.404803E2,5.5343384E3,3.1453018E0,3.789637E3,4.6485095E2,2.4404702E3,7.5252014E1,5.169626E3,3.6471237E2,3.9267696E1,3.7503691E3,3.6097498E2,1.0387598E2,2.3682527E3,7.22175E1,4.1567425E1,3.3684593E1,3.5185806E2,1.2854308E1,2.86219E1,1.0645798E1,3.3669385E2,3.4136753E3,8.015569E1,2.808193E2,1.4491867E2,2.223334E3,2.507624E1,8.608351E0,4.04612E1,3.1139685E2,1.9937464E0,1.0860561E1,1.8500285E2,1.51691E2,7.43547E1,5.800994E0,1.8106062E2,9.9758675E1],"tree_param":{"num_deleted":"0","num_feature":"9","num_nodes":"47","size_leaf_vector":"1"}},{"base_weights":[-4.442228E-3,-8.79372E-1,1.5929968E0,2.2908892E-3,-1.4248053E0,1.9311489E0,-7.186105E-2,4.634136E-1,-7.190559E-2,-1.4268419E0,8.624857E-2,2.1417365E0,1.3461216E-1,4.2403355E-1,1.7307968E0,-7.196322E-2,-1.2403152E0,-3.1812787E-1,2.1660955E0,-4.8539874E-1,1.1070963E-1,-7.104393E-2,2.3978671E-2,2.1498456E0,1.1293211E0,-1.3647876E0,1.7999897E0,-6.952601E-2,1.044903E-1,1.6967964E0,1.1064947E-1,2.1405737E0,-1.2703804E0,4.638085E-2,1.0964864E-1,8.854592E-2,-5.0408274E-2,-3.59851E-2,-7.1752414E-2,1.0587712E-1,-4.4182464E-2,1.10782586E-1,5.2128114E-2,1.0952442E-1,6.412902E-2,-7.0940614E-2,-4.987647E-2],"categories":[],"categories_nodes":[],"categories_segments":[],"categories_sizes":[],"default_left":[0,0,0,0,0,0,0,0,0,0,0,0,0,0,0,0,0,0,0,0,0,0,0,0,0,0,0,0,0,0,0,0,0,0,0,0,0,0,0,0,0,0,0,0,0,0,0],"id":3,"left_children":[1,3,5,7,9,11,-1,13,-1,15,-1,17,19,21,23,-1,25,27,29,31,-1,-1,-1,33,35,37,39,-1,-1,41,-1,43,45,-1,-1,-1,-1,-1,-1,-1,-1,-1,-1,-1,-1,-1,-1],"loss_changes":[1.8927975E4,4.2078677E3,4.91358E3,2.222625E3,3.713867E1,1.6310059E3,0E0,1.2577789E2,0E0,1.0735352E1,0E0,2.3193945E2,5.857579E2,2.5272305E2,1.6743805E1,0E0,1.3286414E2,1.0287738E2,8.035156E1,7.244769E2,0E0,0E0,0E0,2.7046204E-1,4.7507984E1,1.3997253E1,1.3788662E1,0E0,0E0,1.1699713E2,0E0,6.574402E-1,9.527252E0,0E0,0E0,0E0,0E0,0E0,0E0,0E0,0E0,0E0,0E0,0E0,0E0,0E0,0E0],"parents":[2147483647,0,0,1,1,2,2,3,3,4,4,5,5,7,7,9,9,11,11,12,12,13,13,14,14,16,16,17,17,18,18,19,19,23,23,24,24,25,25,26,26,29,29,31,31,32,32],"right_children":[2,4,6,8,10,12,-1,14,-1,16,-1,18,20,22,24,-1,26,28,30,32,-1,-1,-1,34,36,38,40,-1,-1,42,-1,44,46,-1,-1,-1,-1,-1,-1,-1,-1,-1,-1,-1,-1,-1,-1],"split_conditions":[-5.133277E-1,1.3074166E-1,2.254553E0,2.254553E0,2.2625022E0,2.6719108E0,-7.186105E-2,-1.182197E0,-7.190559E-2,2.5780022E-1,8.624857E-2,-1.182197E0,2.7191785E-1,2.0178182E-1,-1.9396359E-1,-7.196322E-2,-5.402074E-1,-1.1577611E0,-3.3861E-1,1.78007E-2,1.1070963E-1,-7.104393E-2,2.3978671E-2,-1.0269032E0,-5.402074E-1,2.254553E0,2.254553E0,-6.952601E-2,1.044903E-1,-1.6572836E-1,1.1064947E-1,-2.4552159E-2,2.6987906E0,4.638085E-2,1.0964864E-1,8.854592E-2,-5.0408274E-2,-3.59851E-2,-7.1752414E-2,1.0587712E-1,-4.4182464E-2,1.10782586E-1,5.2128114E-2,1.0952442E-1,6.412902E-2,-7.0940614E-2,-4.987647E-2],"split_indices":[6,4,0,0,4,6,0,4,0,4,0,4,4,1,4,0,6,3,6,4,0,0,0,4,6,0,0,0,0,4,0,4,6,0,0,0,0,0,0,0,0,0,0,0,0,0,0],"split_type":[0,0,0,0,0,0,0,0,0,0,0,0,0,0,0,0,0,0,0,0,0,0,0,0,0,0,0,0,0,0,0,0,0,0,0,0,0,0,0,0,0,0,0,0,0,0,0],"sum_hessian":[1.3540741E4,8.74919E3,4.7915503E3,3.3443035E3,5.404887E3,4.3108506E3,4.8069946E2,2.5338188E3,8.1048474E2,5.4019414E3,2.945809E0,3.858384E3,4.524668E2,2.4587551E3,7.506369E1,5.0583438E3,3.4359756E2,3.771487E1,3.8206692E3,3.4913998E2,1.0332681E2,7.1137566E1,2.3876174E3,4.2723732E1,3.233996E1,3.3061313E2,1.2984453E1,2.6386126E1,1.1328743E1,3.5046878E2,3.4702002E3,7.995208E1,2.6918793E2,2.2233167E0,4.0500416E1,2.500565E1,7.3343096E0,3.3576855E1,2.9703625E2,1.1799208E1,1.1852456E0,1.9412608E2,1.5634271E2,7.408885E1,5.863225E0,1.7162392E2,9.7564E1],"tree_param":{"num_deleted":"0","num_feature":"9","num_nodes":"47","size_leaf_vector":"1"}},{"base_weights":[-4.1306517E-3,-8.5185504E-1,1.5013586E0,1.5017247E-1,-1.357102E0,1.8197095E0,-7.0334606E-2,4.1740415E-1,-7.031492E-2,-1.3688204E0,1.6954814E0,2.018129E0,1.4332238E-1,4.696684E-1,-1.3431402E0,-1.1230489E0,-7.0434615E-2,1.1294611E-1,-5.593891E-2,-4.813308E-1,2.0426345E0,-4.5331526E-1,1.043629E-1,4.6794742E-1,7.550412E-2,-7.028801E-2,6.0381558E-2,-7.037694E-2,1.650664E0,9.773571E-2,-6.823033E-2,1.630196E0,1.0413029E-1,1.01405494E-1,-1.2009838E0,2.628356E-2,2.3085952E-2,1.0145872E-1,5.3541966E-2,1.046008E-1,5.2427974E-2,-6.9413215E-2,-4.368364E-2],"categories":[],"categories_nodes":[],"categories_segments":[],"categories_sizes":[],"default_left":[0,0,0,0,0,0,0,0,0,0,0,0,0,0,0,0,0,0,0,0,0,0,0,0,0,0,0,0,0,0,0,0,0,0,0,0,0,0,0,0,0,0,0],"id":4,"left_children":[1,3,5,7,9,11,-1,13,-1,15,17,19,21,23,25,27,-1,-1,-1,29,31,33,-1,35,-1,-1,-1,-1,37,-1,-1,39,-1,-1,41,-1,-1,-1,-1,-1,-1,-1,-1],"loss_changes":[1.7121217E4,4.345325E3,4.4766396E3,1.1975883E3,2.0642188E2,1.4487559E3,0E0,2.2669965E2,0E0,5.4123047E1,3.783429E1,2.395664E2,5.3693567E2,3.5669556E0,1.3053268E1,6.323411E2,0E0,0E0,0E0,8.578365E1,6.0200195E1,6.5999084E2,0E0,6.1450195E-1,0E0,0E0,0E0,0E0,1.4228546E1,0E0,0E0,9.059253E1,0E0,0E0,1.5520966E1,0E0,0E0,0E0,0E0,0E0,0E0,0E0,0E0],"parents":[2147483647,0,0,1,1,2,2,3,3,4,4,5,5,7,7,9,9,10,10,11,11,12,12,13,13,14,14,15,15,19,19,20,20,21,21,23,23,28,28,31,31,34,34],"right_children":[2,4,6,8,10,12,-1,14,-1,16,18,20,22,24,26,28,-1,-1,-1,30,32,34,-1,36,-1,-1,-1,-1,38,-1,-1,40,-1,-1,42,-1,-1,-1,-1,-1,-1,-1,-1],"split_conditions":[-5.133277E-1,-6.2511057E-1,2.254553E0,2.254553E0,2.5780022E-1,2.6719108E0,-7.0334606E-2,-3.3513978E-1,-7.031492E-2,1.3074166E-1,2.254553E0,-1.182197E0,2.7191785E-1,-1.182197E0,4.554469E-1,-1.182197E0,-7.0434615E-2,1.1294611E-1,-5.593891E-2,1.7365757E0,-3.3861E-1,1.78007E-2,1.043629E-1,-3.151471E-1,7.550412E-2,-7.028801E-2,6.0381558E-2,-7.037694E-2,-1.7984597E-1,9.773571E-2,-6.823033E-2,-1.6572836E-1,1.0413029E-1,1.01405494E-1,2.6987906E0,2.628356E-2,2.3085952E-2,1.0145872E-1,5.3541966E-2,1.046008E-1,5.2427974E-2,-6.9413215E-2,-4.368364E-2],"split_indices":[6,7,0,0,4,6,0,4,0,4,0,4,4,4,4,4,0,0,0,2,6,4,0,8,0,0,0,0,4,0,0,4,0,0,6,0,0,0,0,0,0,0,0],"split_type":[0,0,0,0,0,0,0,0,0,0,0,0,0,0,0,0,0,0,0,0,0,0,0,0,0,0,0,0,0,0,0,0,0,0,0,0,0,0,0,0,0,0,0],"sum_hessian":[1.3413356E4,8.581591E3,4.831765E3,2.8768337E3,5.7047573E3,4.3553496E3,4.7641574E2,2.4559087E3,4.2092502E2,5.6834907E3,2.126636E1,3.89422E3,4.6112964E2,2.3858157E3,7.009308E1,7.9740717E2,4.8860835E3,1.788329E1,3.3830695E0,3.7628178E1,3.8565918E3,3.5342297E2,1.0770668E2,2.3833232E3,2.4924908E0,6.88517E1,1.2413783E0,7.23675E2,7.373223E1,9.690121E0,2.7938057E1,3.4442892E2,3.5121628E3,8.143547E1,2.719875E2,2.2399352E2,2.1593296E3,4.3098095E1,3.0634138E1,1.9054178E2,1.5388715E2,1.7093857E2,1.0104892E2],"tree_param":{"num_deleted":"0","num_feature":"9","num_nodes":"43","size_leaf_vector":"1"}},{"base_weights":[2.0704924E-3,-8.1964326E-1,1.4361849E0,1.5221746E-1,-1.3299694E0,1.7279437E0,-6.8940066E-2,4.0474612E-1,-6.8922885E-2,-1.3413203E0,-3.0632052E-1,1.909245E0,1.4682746E-1,2.251108E-2,-1.2122289E0,-1.3518906E0,-1.1892328E0,1.4026701E0,-8.721034E-1,3.3964482E-1,1.932786E0,-9.7521186E-1,8.8567215E-1,-6.874376E-2,1.2877749E0,-6.760288E-2,-1.8617058E-2,1.2018871E0,-1.2653849E0,9.033791E-2,5.945797E-1,6.177469E-1,-9.7423923E-1,9.238413E-2,-1.1743505E0,1.5130022E0,9.872286E-2,-1.2040493E0,9.13988E-1,-7.4462146E-1,9.256796E-1,7.335599E-2,2.062559E-2,-4.754385E-2,9.005492E-2,1.273301E-2,-6.513635E-2,-1.33083565E-2,4.733926E-2,4.5544203E-2,-4.1519215E-5,-5.720221E-2,-1.566455E-3,-6.7154326E-2,6.1404776E-2,9.8115474E-2,6.1007794E-2,-6.135555E-2,-6.0920645E-3,-2.17513E-2,5.1576566E-2,-5.150645E-2,1.2357699E-2,3.7296798E-2,6.140658E-2],"categories":[],"categories_nodes":[],"categories_segments":[],"categories_sizes":[],"default_left":[0,0,0,0,0,0,0,0,0,0,0,0,0,0,0,0,0,0,0,0,0,0,0,0,0,0,0,0,0,0,0,0,0,0,0,0,0,0,0,0,0,0,0,0,0,0,0,0,0,0,0,0,0,0,0,0,0,0,0,0,0,0,0,0,0],"id":5,"left_children":[1,3,5,7,9,11,-1,13,-1,15,17,19,21,-1,23,25,27,29,31,33,35,37,39,-1,41,-1,-1,43,45,-1,47,49,51,-1,53,55,-1,57,59,61,63,-1,-1,-1,-1,-1,-1,-1,-1,-1,-1,-1,-1,-1,-1,-1,-1,-1,-1,-1,-1,-1,-1,-1,-1],"loss_changes":[1.5576995E4,4.1680244E3,3.9569053E3,1.1193011E3,6.361328E1,1.2504785E3,0E0,1.832861E2,0E0,7.1533203E0,6.0907974E1,1.4397656E2,3.7386386E2,0E0,2.95225E1,3.28125E-1,6.7517395E1,4.0641937E0,7.7522583E0,1.3699669E2,6.446973E1,7.853635E1,1.8418152E1,0E0,1.3028479E-1,0E0,0E0,1.680462E1,2.029718E1,0E0,2.2941601E0,6.5838003E-1,7.0673065E0,0E0,1.3843056E1,4.3988525E1,0E0,3.848587E0,3.6075191E0,2.2550626E0,1.3531113E1,0E0,0E0,0E0,0E0,0E0,0E0,0E0,0E0,0E0,0E0,0E0,0E0,0E0,0E0,0E0,0E0,0E0,0E0,0E0,0E0,0E0,0E0,0E0,0E0],"parents":[2147483647,0,0,1,1,2,2,3,3,4,4,5,5,7,7,9,9,10,10,11,11,12,12,14,14,15,15,16,16,17,17,18,18,19,19,20,20,21,21,22,22,24,24,27,27,28,28,30,30,31,31,32,32,34,34,35,35,37,37,38,38,39,39,40,40],"right_children":[2,4,6,8,10,12,-1,14,-1,16,18,20,22,-1,24,26,28,30,32,34,36,38,40,-1,42,-1,-1,44,46,-1,48,50,52,-1,54,56,-1,58,60,62,64,-1,-1,-1,-1,-1,-1,-1,-1,-1,-1,-1,-1,-1,-1,-1,-1,-1,-1,-1,-1,-1,-1,-1,-1],"split_conditions":[-5.133277E-1,-6.2511057E-1,2.254553E0,2.254553E0,-5.2676755E-1,2.6719108E0,-6.8940066E-2,-1.1323766E0,-6.8922885E-2,-5.402074E-1,-2.351283E-1,-1.1577611E0,2.6853507E0,2.251108E-2,-7.618318E-1,2.2584646E0,-1.0934801E0,-1.0934801E0,-4.2160702E-1,1.8327025E0,-3.3861E-1,-5.3810614E-1,-1.3669457E0,-6.874376E-2,-1.2783432E-1,-6.760288E-2,-1.8617058E-2,-1.1292448E0,-2.946839E-1,9.033791E-2,-9.384999E-1,-9.5468414E-1,5.683933E-1,9.238413E-2,-5.6296456E-1,-1.0934801E0,9.872286E-2,1.939163E0,-9.027353E-1,2.8331888E0,7.968549E-1,7.335599E-2,2.062559E-2,-4.754385E-2,9.005492E-2,1.273301E-2,-6.513635E-2,-1.33083565E-2,4.733926E-2,4.5544203E-2,-4.1519215E-5,-5.720221E-2,-1.566455E-3,-6.7154326E-2,6.1404776E-2,9.8115474E-2,6.1007794E-2,-6.135555E-2,-6.0920645E-3,-2.17513E-2,5.1576566E-2,-5.150645E-2,1.2357699E-2,3.7296798E-2,6.140658E-2],"split_indices":[6,7,0,0,6,6,0,3,0,6,5,3,6,0,7,7,5,5,3,2,6,7,2,0,5,0,0,5,3,0,5,3,3,0,7,5,0,3,5,6,3,0,0,0,0,0,0,0,0,0,0,0,0,0,0,0,0,0,0,0,0,0,0,0,0],"split_type":[0,0,0,0,0,0,0,0,0,0,0,0,0,0,0,0,0,0,0,0,0,0,0,0,0,0,0,0,0,0,0,0,0,0,0,0,0,0,0,0,0,0,0,0,0,0,0,0,0,0,0,0,0,0,0,0,0,0,0,0,0,0,0,0,0],"sum_hessian":[1.3216415E4,8.402442E3,4.8139727E3,2.8932544E3,5.5091875E3,4.362236E3,4.5173703E2,2.4841572E3,4.0909723E2,5.448461E3,6.0726765E1,3.9133027E3,4.4893292E2,2.4169062E3,6.725103E1,5.087019E3,3.6144162E2,1.4736094E1,4.599067E1,5.8052692E1,3.85525E3,1.7811714E2,2.7081577E2,6.3565605E1,3.6854227E0,5.085772E3,1.2474908E0,1.069958E1,3.5074203E2,8.999854E0,5.7362404E0,2.6267083E0,4.3363964E1,2.897315E1,2.9079542E1,3.5151303E2,3.503737E3,1.5919646E2,1.8920685E1,6.064794E0,2.6475098E2,2.497476E0,1.1879466E0,2.2019248E0,8.497656E0,8.270329E0,3.424717E2,1.7365677E0,3.999673E0,1.4615488E0,1.1651595E0,3.656568E1,6.7982802E0,2.7583185E1,1.4963577E0,1.36454E2,2.1505905E2,1.5574368E2,3.4527748E0,1.2999963E0,1.762069E1,4.67912E0,1.385674E0,1.6823637E2,9.651462E1],"tree_param":{"num_deleted":"0","num_feature":"9","num_nodes":"65","size_leaf_vector":"1"}},{"base_weights":[-8.566638E-3,-7.9866874E-1,1.3711079E0,1.3599588E-1,-1.30293E0,1.6484504E0,-6.766635E-2,3.72074E-1,-6.764894E-2,-1.3152176E0,-2.0136635E-1,1.8212452E0,1.2929915E-1,4.061377E-1,-1.160396E0,-1.3249056E0,-1.1759322E0,1.3309466E0,-8.1544816E-1,1.4703677E0,1.8559184E0,-8.9165336E-1,8.3503747E-1,-1.1532418E0,4.1736308E-1,-6.719705E-2,7.499614E-2,-1.3252593E0,-8.680529E-3,1.1339535E0,-1.249082E0,-1.0779477E-2,1.4924835E0,-1.1334355E0,-2.8035682E-1,1.8694444E0,1.2018138E0,9.398811E-2,1.2518734E0,9.7149074E-1,-1.1160107E0,-9.5231205E-1,8.7875366E-1,-6.409673E-2,-2.0331604E-2,2.0895008E-2,-1.793945E-2,-6.6776715E-2,-6.445998E-2,-4.661839E-2,8.585257E-2,-6.3139714E-2,-7.950146E-3,8.6150125E-2,4.929372E-2,-2.7038177E-2,-5.8816563E-2,8.469093E-3,-3.7299283E-2,3.894565E-3,9.4409905E-2,-6.2571064E-4,6.182912E-2,-3.1236723E-2,9.3963034E-2,-1.5423997E-2,9.110679E-2,-1.5431448E-2,-5.925789E-2,-5.6864887E-2,-1.0527047E-2,4.1447785E-2,9.2263974E-2],"categories":[],"categories_nodes":[],"categories_segments":[],"categories_sizes":[],"default_left":[0,0,0,0,0,0,0,0,0,0,0,0,0,0,0,0,0,0,0,0,0,0,0,0,0,0,0,0,0,0,0,0,0,0,0,0,0,0,0,0,0,0,0,0,0,0,0,0,0,0,0,0,0,0,0,0,0,0,0,0,0,0,0,0,0,0,0,0,0,0,0,0,0],"id":6,"left_children":[1,3,5,7,9,11,-1,13,-1,15,17,19,21,23,25,27,29,31,33,35,37,39,41,43,45,-1,-1,47,-1,49,51,-1,53,55,57,59,61,-1,63,65,67,69,71,-1,-1,-1,-1,-1,-1,-1,-1,-1,-1,-1,-1,-1,-1,-1,-1,-1,-1,-1,-1,-1,-1,-1,-1,-1,-1,-1,-1,-1,-1],"loss_changes":[1.4162162E4,3.8936963E3,3.5768604E3,1.0184545E3,7.2368164E1,1.1269951E3,0E0,1.3099484E2,0E0,5.6035156E0,5.789848E1,4.4177734E1,3.175114E2,4.331073E1,2.8690483E1,1.7871094E0,6.1230133E1,4.7321053E0,7.12191E0,3.5430298E1,4.8128906E1,7.639783E1,2.1188293E1,1.184494E0,1.1628418E0,0E0,0E0,1.1230469E-1,0E0,1.5324875E1,4.9353027E0,0E0,1.8276978E-1,5.2768707E-2,3.8175955E0,4.5436096E0,9.005859E0,0E0,1.6140652E2,2.2227968E1,8.637772E0,6.796808E-1,1.0732361E1,0E0,0E0,0E0,0E0,0E0,0E0,0E0,0E0,0E0,0E0,0E0,0E0,0E0,0E0,0E0,0E0,0E0,0E0,0E0,0E0,0E0,0E0,0E0,0E0,0E0,0E0,0E0,0E0,0E0,0E0],"parents":[2147483647,0,0,1,1,2,2,3,3,4,4,5,5,7,7,9,9,10,10,11,11,12,12,13,13,14,14,15,15,16,16,17,17,18,18,19,19,20,20,21,21,22,22,23,23,24,24,27,27,29,29,30,30,32,32,33,33,34,34,35,35,36,36,38,38,39,39,40,40,41,41,42,42],"right_children":[2,4,6,8,10,12,-1,14,-1,16,18,20,22,24,26,28,30,32,34,36,38,40,42,44,46,-1,-1,48,-1,50,52,-1,54,56,58,60,62,-1,64,66,68,70,72,-1,-1,-1,-1,-1,-1,-1,-1,-1,-1,-1,-1,-1,-1,-1,-1,-1,-1,-1,-1,-1,-1,-1,-1,-1,-1,-1,-1,-1,-1],"split_conditions":[-5.133277E-1,-6.2511057E-1,2.254553E0,2.254553E0,-5.2676755E-1,2.6719108E0,-6.766635E-2,-8.176499E-1,-6.764894E-2,-5.402074E-1,-8.01481E-2,-3.3861E-1,-5.505353E-1,-8.725795E-1,-7.618318E-1,2.2584646E0,-1.0934801E0,-1.339481E0,2.325045E-1,-1.0934801E0,1.8327025E0,-5.7539374E-1,-1.3669457E0,-5.2676755E-1,-1.0934801E0,-6.719705E-2,7.499614E-2,-5.6296456E-1,-8.680529E-3,-1.1292448E0,1.8273004E0,-1.0779477E-2,-1.0934801E0,2.536554E-1,-1.5856569E-1,-1.1292448E0,-7.2454417E-1,9.398811E-2,-1.7296809E0,-7.494026E-1,-2.4704985E-1,2.8331888E0,2.2460356E0,-6.409673E-2,-2.0331604E-2,2.0895008E-2,-1.793945E-2,-6.6776715E-2,-6.445998E-2,-4.661839E-2,8.585257E-2,-6.3139714E-2,-7.950146E-3,8.6150125E-2,4.929372E-2,-2.7038177E-2,-5.8816563E-2,8.469093E-3,-3.7299283E-2,3.894565E-3,9.4409905E-2,-6.2571064E-4,6.182912E-2,-3.1236723E-2,9.3963034E-2,-1.5423997E-2,9.110679E-2,-1.5431448E-2,-5.925789E-2,-5.6864887E-2,-1.0527047E-2,4.1447785E-2,9.2263974E-2],"split_indices":[6,7,0,0,6,6,0,2,0,6,5,6,7,2,7,7,5,2,7,5,2,7,2,6,5,0,0,7,0,5,5,0,5,5,1,5,7,0,1,7,5,6,7,0,0,0,0,0,0,0,0,0,0,0,0,0,0,0,0,0,0,0,0,0,0,0,0,0,0,0,0,0,0],"split_type":[0,0,0,0,0,0,0,0,0,0,0,0,0,0,0,0,0,0,0,0,0,0,0,0,0,0,0,0,0,0,0,0,0,0,0,0,0,0,0,0,0,0,0,0,0,0,0,0,0,0,0,0,0,0,0,0,0,0,0,0,0,0,0,0,0,0,0,0,0,0,0,0,0],"sum_hessian":[1.2989806E4,8.259968E3,4.729838E3,2.8949026E3,5.3650654E3,4.2931934E3,4.366442E2,2.4993748E3,3.9552777E2,5.305688E3,5.937752E1,3.8545603E3,4.3863318E2,2.4457458E3,5.362899E1,4.952692E3,3.5299588E2,1.6653875E1,4.2723644E1,3.5055087E2,3.5040095E3,1.7917181E2,2.5946136E2,1.6753048E1,2.4289927E3,5.0630623E1,2.9983668E0,4.95102E3,1.6719716E0,1.0390422E1,3.4260547E2,1.543355E0,1.511052E1,2.6096899E1,1.6626745E1,1.3861096E2,2.1193991E2,3.3689148E3,1.3509473E2,1.8898846E1,1.6027296E2,5.698359E0,2.5376302E2,1.3678316E1,3.074732E0,2.4277744E3,1.21835E0,3.8250503E3,1.1259697E3,2.1549492E0,8.235473E0,3.381928E2,4.412652E0,8.734891E0,6.375629E0,2.6796646E0,2.3417234E1,8.781323E0,7.845422E0,1.4893168E0,1.3712164E2,5.917158E0,2.0602275E2,3.384966E1,1.0124507E2,7.7997985E0,1.1099048E1,1.3074515E1,1.4719846E2,4.13415E0,1.5642091E0,2.4309573E2,1.0667276E1],"tree_param":{"num_deleted":"0","num_feature":"9","num_nodes":"73","size_leaf_vector":"1"}},{"base_weights":[-8.40822E-3,-4.962196E-1,8.1032693E-1,5.011239E-1,-1.1693202E0,1.1617813E0,-6.662037E-2,2.461867E-1,1.7199357E0,-1.3240895E0,-4.8472163E-1,7.591548E-1,9.221357E-2,-1.2739251E0,3.560752E-1,8.639478E-2,1.0879452E0,-9.558684E-1,-1.3284861E0,1.531495E0,-6.6552885E-2,1.6054206E0,-1.1517094E0,-6.657218E-2,7.182142E-2,3.7962756E-1,-6.4781845E-2,-2.7150808E-2,7.317734E-2,-1.3022155E0,8.534366E-2,-6.661904E-2,-1.1040992E0,-6.578876E-2,9.185309E-2,1.8096653E0,7.927921E-1,-1.2225809E0,8.684867E-2,1.8917274E-2,5.6061286E-2,-6.599594E-2,-1.4385096E-2,7.630099E-2,-6.451772E-2,9.084722E-2,7.391058E-2,6.7280166E-2,3.5668653E-2,4.817353E-2,-6.30433E-2],"categories":[],"categories_nodes":[],"categories_segments":[],"categories_sizes":[],"default_left":[0,0,0,0,0,0,0,0,0,0,0,0,0,0,0,0,0,0,0,0,0,0,0,0,0,0,0,0,0,0,0,0,0,0,0,0,0,0,0,0,0,0,0,0,0,0,0,0,0,0,0],"id":7,"left_children":[1,3,5,7,9,11,-1,13,15,17,19,21,-1,23,25,-1,27,29,31,33,-1,35,37,-1,-1,39,-1,-1,-1,41,-1,-1,43,-1,-1,45,47,49,-1,-1,-1,-1,-1,-1,-1,-1,-1,-1,-1,-1,-1],"loss_changes":[5.113506E3,5.3865835E3,3.6014285E3,1.0043157E3,5.0693555E2,1.1272129E3,0E0,4.4735712E2,9.3310547E-1,5.0546875E0,1.5120103E3,4.181967E3,0E0,3.0064545E1,9.7582855E1,0E0,6.7096024E0,4.8021164E1,1.9003906E0,2.3044312E2,0E0,2.9598486E2,1.6467542E2,0E0,0E0,1.9161682E0,0E0,0E0,0E0,4.19693E-1,0E0,0E0,3.7071594E1,0E0,0E0,7.6660156E-1,1.4920181E1,6.6124756E1,0E0,0E0,0E0,0E0,0E0,0E0,0E0,0E0,0E0,0E0,0E0,0E0,0E0],"parents":[2147483647,0,0,1,1,2,2,3,3,4,4,5,5,7,7,8,8,9,9,10,10,11,11,13,13,14,14,16,16,17,17,18,18,19,19,21,21,22,22,25,25,29,29,32,32,35,35,36,36,37,37],"right_children":[2,4,6,8,10,12,-1,14,16,18,20,22,-1,24,26,-1,28,30,32,34,-1,36,38,-1,-1,40,-1,-1,-1,42,-1,-1,44,-1,-1,46,48,50,-1,-1,-1,-1,-1,-1,-1,-1,-1,-1,-1,-1,-1],"split_conditions":[-3.6409727E-1,1.589769E-1,2.254553E0,-1.1539618E0,2.7191785E-1,2.7191785E-1,-6.662037E-2,5.0447375E-1,1.16624035E-1,-5.7539374E-1,2.254553E0,2.1544737E-1,9.221357E-2,-1.0435303E0,2.254553E0,8.639478E-2,-7.494026E-1,-7.618318E-1,-5.6296456E-1,-3.6050457E-1,-6.6552885E-2,-1.233755E-1,8.9839345E-1,-6.657218E-2,7.182142E-2,-9.9810773E-1,-6.4781845E-2,-2.7150808E-2,7.317734E-2,1.0253166E0,8.534366E-2,-6.661904E-2,-3.7652647E-1,-6.578876E-2,9.185309E-2,-1.6572836E-1,-1.6287836E0,-6.373763E-1,8.684867E-2,1.8917274E-2,5.6061286E-2,-6.599594E-2,-1.4385096E-2,7.630099E-2,-6.451772E-2,9.084722E-2,7.391058E-2,6.7280166E-2,3.5668653E-2,4.817353E-2,-6.30433E-2],"split_indices":[7,4,0,4,4,4,0,1,4,7,0,4,0,3,0,0,7,7,7,0,0,4,3,0,0,5,0,0,0,3,0,0,7,0,0,4,1,3,0,0,0,0,0,0,0,0,0,0,0,0,0],"split_type":[0,0,0,0,0,0,0,0,0,0,0,0,0,0,0,0,0,0,0,0,0,0,0,0,0,0,0,0,0,0,0,0,0,0,0,0,0,0,0,0,0,0,0,0,0,0,0,0,0,0,0],"sum_hessian":[1.2801337E4,8.0220845E3,4.779252E3,3.2325786E3,4.789506E3,4.106204E3,6.730477E2,2.6743835E3,5.581951E2,3.905617E3,8.83889E2,2.5839485E3,1.5222557E3,1.7958276E2,2.4948008E3,5.495397E2,8.655495E0,4.866042E1,3.8569565E3,2.6108936E2,6.227996E2,1.7909493E3,7.929992E2,1.7634909E2,3.2336798E0,2.4604858E3,3.431481E1,1.5367582E0,7.1187363E0,4.351173E1,5.1486893E0,3.7863003E3,7.065622E1,2.498386E1,2.3610548E2,1.4302466E3,3.607028E2,7.7457245E2,1.8426737E1,2.457747E3,2.7388768E0,4.2469597E1,1.0421333E0,4.197003E0,6.645922E1,1.3951265E3,3.5120163E1,4.330778E1,3.1739502E2,1.2915936E1,7.6165656E2],"tree_param":{"num_deleted":"0","num_feature":"9","num_nodes":"51","size_leaf_vector":"1"}},{"base_weights":[-5.535656E-4,-4.7646838E-1,7.896421E-1,1.7871073E-1,-9.4787633E-1,1.1283711E0,-6.554258E-2,4.5182133E-1,-6.545845E-2,-1.0812113E0,7.543479E-2,8.967004E-1,1.6189533E0,3.448367E-1,8.497929E-2,-9.9816346E-1,-1.1101313E0,1.0399958E0,-6.527814E-2,1.4533813E0,3.3123213E-1,1.0775316E0,1.626951E0,-6.447948E-2,3.6032993E-1,-1.2340006E0,-9.6975505E-1,-5.680516E-2,-1.0376089E0,1.6703284E0,-2.2809826E-1,1.5763315E0,1.1195657E0,9.908174E-1,5.569977E-2,1.157226E0,1.2931455E-3,1.337733E0,8.18778E-2,1.7675614E-2,7.356384E-2,-6.371939E-2,-4.620541E-2,-4.0690463E-2,-4.8965957E-2,-2.8406173E-2,-5.217665E-2,6.582263E-2,8.826058E-2,-2.2381125E-2,5.732246E-2,8.056135E-2,7.35841E-2,2.4000285E-2,5.720911E-2,-1.9998236E-2,5.16494E-2,7.689122E-2,6.0834526E-4,6.272774E-2,6.1587505E-3,5.0402474E-2,7.312852E-2],"categories":[],"categories_nodes":[],"categories_segments":[],"categories_sizes":[],"default_left":[0,0,0,0,0,0,0,0,0,0,0,0,0,0,0,0,0,0,0,0,0,0,0,0,0,0,0,0,0,0,0,0,0,0,0,0,0,0,0,0,0,0,0,0,0,0,0,0,0,0,0,0,0,0,0,0,0,0,0,0,0,0,0],"id":8,"left_children":[1,3,5,7,9,11,-1,13,-1,15,17,19,21,23,-1,25,27,29,-1,31,33,35,37,-1,39,41,43,-1,45,47,49,51,53,55,57,59,-1,61,-1,-1,-1,-1,-1,-1,-1,-1,-1,-1,-1,-1,-1,-1,-1,-1,-1,-1,-1,-1,-1,-1,-1,-1,-1],"loss_changes":[4.7337446E3,2.426561E3,3.3679302E3,1.3367365E3,6.2348047E2,4.6168506E2,0E0,3.7037494E2,0E0,8.600586E0,7.0418835E2,8.715144E2,3.901123E0,6.530832E1,0E0,5.864746E0,4.45166E0,2.4913696E2,0E0,5.5514893E1,2.4992659E2,1.8114204E0,1.7502441E0,0E0,1.8698578E1,1.9456482E-1,6.130371E-1,0E0,1.6315308E0,4.660095E0,3.195826E1,1.3444824E0,5.4194946E0,2.4180176E1,6.2649235E1,1.8985443E0,0E0,6.2091064E-1,0E0,0E0,0E0,0E0,0E0,0E0,0E0,0E0,0E0,0E0,0E0,0E0,0E0,0E0,0E0,0E0,0E0,0E0,0E0,0E0,0E0,0E0,0E0,0E0,0E0],"parents":[2147483647,0,0,1,1,2,2,3,3,4,4,5,5,7,7,9,9,10,10,11,11,12,12,13,13,15,15,16,16,17,17,19,19,20,20,21,21,22,22,24,24,25,25,26,26,28,28,29,29,30,30,31,31,32,32,33,33,34,34,35,35,37,37],"right_children":[2,4,6,8,10,12,-1,14,-1,16,18,20,22,24,-1,26,28,30,-1,32,34,36,38,-1,40,42,44,-1,46,48,50,52,54,56,58,60,-1,62,-1,-1,-1,-1,-1,-1,-1,-1,-1,-1,-1,-1,-1,-1,-1,-1,-1,-1,-1,-1,-1,-1,-1,-1,-1],"split_conditions":[-3.6409727E-1,-5.7539374E-1,2.254553E0,2.254553E0,-5.6296456E-1,7.58778E-1,-6.554258E-2,-7.618318E-1,-6.545845E-2,-1.6776079E-1,2.254553E0,6.0700834E-2,-1.3669457E0,-3.6050457E-1,8.497929E-2,-1.1577611E0,1.2410859E0,-3.7652647E-1,-6.527814E-2,-2.0583773E-1,5.0988983E-2,2.0595975E0,8.0954725E-1,-6.447948E-2,7.714703E-1,4.4440025E-1,-1.0942996E0,-5.680516E-2,-1.0934801E0,-5.3810614E-1,7.714703E-1,-4.4699165E-1,-1.3120161E0,-1.3669457E0,-1.7765923E-1,1.9010861E0,1.2931455E-3,6.550974E-1,8.18778E-2,1.7675614E-2,7.356384E-2,-6.371939E-2,-4.620541E-2,-4.0690463E-2,-4.8965957E-2,-2.8406173E-2,-5.217665E-2,6.582263E-2,8.826058E-2,-2.2381125E-2,5.732246E-2,8.056135E-2,7.35841E-2,2.4000285E-2,5.720911E-2,-1.9998236E-2,5.16494E-2,7.689122E-2,6.0834526E-4,6.272774E-2,6.1587505E-3,5.0402474E-2,7.312852E-2],"split_indices":[7,7,0,0,7,3,0,7,0,3,0,3,2,0,0,3,3,7,0,3,5,7,3,0,3,5,3,0,5,7,3,3,2,2,7,3,0,7,0,0,0,0,0,0,0,0,0,0,0,0,0,0,0,0,0,0,0,0,0,0,0,0,0],"split_type":[0,0,0,0,0,0,0,0,0,0,0,0,0,0,0,0,0,0,0,0,0,0,0,0,0,0,0,0,0,0,0,0,0,0,0,0,0,0,0,0,0,0,0,0,0,0,0,0,0,0,0,0,0,0,0,0,0,0,0,0,0,0,0],"sum_hessian":[1.2585542E4,7.8550444E3,4.7304976E3,3.2871167E3,4.5679277E3,4.0739832E3,6.565143E2,2.7779087E3,5.0920804E2,4.0412996E3,5.266283E2,2.7691282E3,1.3048549E3,2.5597126E3,2.1819608E2,1.0529893E3,2.9883103E3,3.10209E2,2.1641928E2,1.3946151E3,1.3745131E3,2.0970024E1,1.2838849E3,2.3264194E1,2.5364485E3,1.0864202E2,9.443473E2,2.1895247E3,7.9878546E2,2.0699875E2,1.0321026E2,1.0164983E3,3.7811682E2,4.0423523E2,9.702778E2,1.9399574E1,1.5704498E0,4.9908985E1,1.233976E3,2.5222878E3,1.4160507E1,9.336208E1,1.5279942E1,5.9544067E1,8.848032E2,1.1161083E1,7.876244E2,4.6911674E1,1.6008708E2,8.9578354E1,1.3631902E1,7.515106E2,2.6498767E2,1.4773997E1,3.6334283E2,1.1646583E1,3.9258865E2,2.6706308E1,9.435715E2,1.7535795E1,1.8637781E0,1.6200336E1,3.370865E1],"tree_param":{"num_deleted":"0","num_feature":"9","num_nodes":"63","size_leaf_vector":"1"}},{"base_weights":[-5.18075E-3,-7.45113E-1,1.2374609E0,-1.4961773E-2,-1.2382643E0,1.4783504E0,-6.4436756E-2,3.3174604E-1,-6.4544395E-2,-1.2516011E0,-3.3648494E-1,1.6354444E0,7.723766E-2,3.391407E-1,-1.1253672E0,-9.2796624E-1,-6.316798E-2,1.1322443E0,-8.7371254E-1,3.2718492E-1,1.6539848E0,-9.0281075E-1,6.7180634E-1,2.2330372E-2,3.3551306E-1,-1.3799259E-2,-5.9208807E-2,-1.0913067E0,9.699793E-1,7.653829E-2,4.9370146E-1,5.8822155E-2,-9.696207E-1,7.73371E-2,-1.1452568E0,1.266081E0,1.6937873E0,-4.1870403E-1,-1.0624188E0,-7.5668687E-1,7.085784E-1,1.7012699E-2,1.3286977E-2,-6.1711665E-2,-4.4000406E-2,-4.901279E-2,7.843372E-2,-3.6380652E-2,3.743448E-2,-5.4683965E-2,5.1177846E-4,-6.2640026E-2,2.6604012E-2,8.312479E-2,5.0495137E-2,8.511918E-2,7.938924E-2,-3.156234E-2,4.2573933E-2,-1.9715382E-2,-5.445611E-2,-4.986699E-2,-1.1192319E-3,2.8036421E-2,4.5333993E-2],"categories":[],"categories_nodes":[],"categories_segments":[],"categories_sizes":[],"default_left":[0,0,0,0,0,0,0,0,0,0,0,0,0,0,0,0,0,0,0,0,0,0,0,0,0,0,0,0,0,0,0,0,0,0,0,0,0,0,0,0,0,0,0,0,0,0,0,0,0,0,0,0,0,0,0,0,0,0,0,0,0,0,0,0,0],"id":9,"left_children":[1,3,5,7,9,11,-1,13,-1,15,17,19,21,23,25,27,-1,29,31,33,35,37,39,-1,41,-1,-1,43,45,-1,47,-1,49,-1,51,53,55,57,59,61,63,-1,-1,-1,-1,-1,-1,-1,-1,-1,-1,-1,-1,-1,-1,-1,-1,-1,-1,-1,-1,-1,-1,-1,-1],"loss_changes":[1.1422237E4,2.8036235E3,2.8232837E3,1.3894374E3,5.5472656E1,9.3162695E2,0E0,2.6993317E1,0E0,1.6253418E1,5.5510464E1,9.17832E1,2.4990475E2,8.084717E-1,3.076744E-1,5.1996735E1,0E0,4.0642605E0,1.11995125E1,9.95229E1,5.579883E1,1.2070358E1,1.4553734E1,0E0,6.9744873E-1,0E0,0E0,3.4971008E0,1.7358345E1,0E0,3.2711575E0,0E0,6.018532E0,0E0,5.2187614E0,3.419049E1,3.9648438E-1,1.1825226E1,1.732193E0,1.2465639E0,7.126602E0,0E0,0E0,0E0,0E0,0E0,0E0,0E0,0E0,0E0,0E0,0E0,0E0,0E0,0E0,0E0,0E0,0E0,0E0,0E0,0E0,0E0,0E0,0E0,0E0],"parents":[2147483647,0,0,1,1,2,2,3,3,4,4,5,5,7,7,9,9,10,10,11,11,12,12,13,13,14,14,15,15,17,17,18,18,19,19,20,20,21,21,22,22,24,24,27,27,28,28,30,30,32,32,34,34,35,35,36,36,37,37,38,38,39,39,40,40],"right_children":[2,4,6,8,10,12,-1,14,-1,16,18,20,22,24,26,28,-1,30,32,34,36,38,40,-1,42,-1,-1,44,46,-1,48,-1,50,-1,52,54,56,58,60,62,64,-1,-1,-1,-1,-1,-1,-1,-1,-1,-1,-1,-1,-1,-1,-1,-1,-1,-1,-1,-1,-1,-1,-1,-1],"split_conditions":[-5.133277E-1,-1.1704534E0,2.254553E0,2.254553E0,-5.2676755E-1,2.6719108E0,-6.4436756E-2,-1.1411663E0,-6.4544395E-2,-1.0934801E0,-1.9936363E-1,-1.1577611E0,2.6853507E0,-3.9505306E-1,-1.6576114E0,-5.402074E-1,-6.316798E-2,-1.0934801E0,-9.5468414E-1,1.8327025E0,-3.3861E-1,5.159296E-1,-1.3669457E0,2.2330372E-2,7.635834E-1,-1.3799259E-2,-5.9208807E-2,-1.1292448E0,-1.1292448E0,7.653829E-2,-1.339481E0,5.8822155E-2,6.1916256E-1,7.73371E-2,1.8464348E0,-1.0934801E0,2.3762348E0,1.406086E0,-9.5468414E-1,5.638185E-1,5.0493175E-1,1.7012699E-2,1.3286977E-2,-6.1711665E-2,-4.4000406E-2,-4.901279E-2,7.843372E-2,-3.6380652E-2,3.743448E-2,-5.4683965E-2,5.1177846E-4,-6.2640026E-2,2.6604012E-2,8.312479E-2,5.0495137E-2,8.511918E-2,7.938924E-2,-3.156234E-2,4.2573933E-2,-1.9715382E-2,-5.445611E-2,-4.986699E-2,-1.1192319E-3,2.8036421E-2,4.5333993E-2],"split_indices":[6,3,0,0,6,6,0,5,0,5,5,3,6,8,1,6,0,5,3,2,6,5,2,0,8,0,0,5,5,0,2,0,3,0,2,5,6,3,3,8,3,0,0,0,0,0,0,0,0,0,0,0,0,0,0,0,0,0,0,0,0,0,0,0,0],"split_type":[0,0,0,0,0,0,0,0,0,0,0,0,0,0,0,0,0,0,0,0,0,0,0,0,0,0,0,0,0,0,0,0,0,0,0,0,0,0,0,0,0,0,0,0,0,0,0,0,0,0,0,0,0,0,0,0,0,0,0,0,0,0,0,0,0],"sum_hessian":[1.242062E4,7.785272E3,4.635348E3,3.1389006E3,4.6463716E3,4.232195E3,4.031531E2,2.4687944E3,6.701063E2,4.5782734E3,6.809799E1,3.8053665E3,4.2682846E2,2.4570923E3,1.1702169E1,1.633108E2,4.414963E3,1.7941116E1,5.015688E1,5.3435623E1,3.751931E3,1.6097284E2,2.6585562E2,7.624628E1,2.380846E3,1.1263994E0,1.0575769E1,1.5076106E2,1.2549752E1,1.0186397E1,7.7547197E0,1.738029E0,4.841885E1,2.9200066E1,2.423556E1,3.5220944E2,3.3997214E3,4.0811363E1,1.2016148E2,6.180552E0,2.5967505E2,2.2257366E3,1.5510927E2,8.704259E1,6.371847E1,2.7980032E0,9.751749E0,1.0192604E0,6.7354593E0,4.2874405E1,5.5444455E0,2.3013155E1,1.222404E0,1.3610637E2,2.1610309E2,3.1307717E3,2.6894965E2,3.539214E1,5.4192243E0,5.224032E0,1.1493745E2,4.3851824E0,1.79537E0,1.5089064E2,1.0878442E2],"tree_param":{"num_deleted":"0","num_feature":"9","num_nodes":"65","size_leaf_vector":"1"}},{"base_weights":[-8.375036E-3,-7.2809017E-1,1.1905279E0,1.5249145E-3,-1.2652919E0,1.4213316E0,-6.352338E-2,3.216033E-1,-6.3626856E-2,-1.2675213E0,7.4553095E-2,1.5753326E0,9.0175256E-2,2.841845E-1,1.5545473E0,-6.406883E-2,-1.065437E0,-4.0852863E-1,1.5931067E0,-4.3333718E-1,8.6844645E-2,3.219058E-1,-6.298157E-2,1.8467504E0,1.2060555E0,-1.1875886E0,1.3289024E0,7.6022364E-2,-6.177658E-2,1.2165314E0,1.6306665E0,1.7141936E0,-1.151964E0,2.3011185E-2,1.587375E-2,7.1999416E-2,1.0853078E-1,8.5205026E-2,-4.319395E-2,-2.8065829E-2,-6.343204E-2,-2.1775885E-2,7.885846E-2,8.255981E-2,3.5025034E-2,8.1932075E-2,7.6752506E-2,8.624268E-2,2.7849484E-2,-6.330755E-2,-4.845732E-2],"categories":[],"categories_nodes":[],"categories_segments":[],"categories_sizes":[],"default_left":[0,0,0,0,0,0,0,0,0,0,0,0,0,0,0,0,0,0,0,0,0,0,0,0,0,0,0,0,0,0,0,0,0,0,0,0,0,0,0,0,0,0,0,0,0,0,0,0,0,0,0],"id":10,"left_children":[1,3,5,7,9,11,-1,13,-1,15,-1,17,19,21,23,-1,25,27,29,31,-1,33,-1,35,37,39,41,-1,-1,43,45,47,49,-1,-1,-1,-1,-1,-1,-1,-1,-1,-1,-1,-1,-1,-1,-1,-1,-1,-1],"loss_changes":[1.0468179E4,2.971344E3,2.5867568E3,1.3117843E3,2.8720215E1,8.5289844E2,0E0,1.1816577E2,0E0,1.08515625E1,0E0,1.3216113E2,3.736419E2,1.4578046E2,5.461075E0,0E0,8.519324E1,5.5980766E1,5.030371E1,5.0972205E2,0E0,1.3477936E0,0E0,2.0364227E0,3.9942593E1,1.3122223E1,6.9724884E0,0E0,0E0,7.492807E1,4.3945312E-2,6.1828613E-2,3.9315186E0,0E0,0E0,0E0,0E0,0E0,0E0,0E0,0E0,0E0,0E0,0E0,0E0,0E0,0E0,0E0,0E0,0E0,0E0],"parents":[2147483647,0,0,1,1,2,2,3,3,4,4,5,5,7,7,9,9,11,11,12,12,13,13,14,14,16,16,17,17,18,18,19,19,21,21,23,23,24,24,25,25,26,26,29,29,30,30,31,31,32,32],"right_children":[2,4,6,8,10,12,-1,14,-1,16,-1,18,20,22,24,-1,26,28,30,32,-1,34,-1,36,38,40,42,-1,-1,44,46,48,50,-1,-1,-1,-1,-1,-1,-1,-1,-1,-1,-1,-1,-1,-1,-1,-1,-1,-1],"split_conditions":[-5.133277E-1,1.02506414E-1,2.254553E0,2.254553E0,2.2625022E0,2.6719108E0,-6.352338E-2,-1.182197E0,-6.3626856E-2,2.4368261E-1,7.4553095E-2,-1.182197E0,2.7191785E-1,-8.451147E-1,-5.402074E-1,-6.406883E-2,-5.402074E-1,1.7365757E0,-3.3861E-1,1.78007E-2,8.6844645E-2,-3.9505306E-1,-6.298157E-2,-5.2787397E-2,-1.7984597E-1,2.254553E0,2.5780022E-1,7.6022364E-2,-6.177658E-2,-1.6572836E-1,2.3762348E0,1.8601673E0,2.6987906E0,2.3011185E-2,1.587375E-2,7.1999416E-2,1.0853078E-1,8.5205026E-2,-4.319395E-2,-2.8065829E-2,-6.343204E-2,-2.1775885E-2,7.885846E-2,8.255981E-2,3.5025034E-2,8.1932075E-2,7.6752506E-2,8.624268E-2,2.7849484E-2,-6.330755E-2,-4.845732E-2],"split_indices":[6,4,0,0,4,6,0,4,0,4,0,4,4,2,6,0,6,2,6,4,0,8,0,4,4,0,4,0,0,4,6,2,6,0,0,0,0,0,0,0,0,0,0,0,0,0,0,0,0,0,0],"split_type":[0,0,0,0,0,0,0,0,0,0,0,0,0,0,0,0,0,0,0,0,0,0,0,0,0,0,0,0,0,0,0,0,0,0,0,0,0,0,0,0,0,0,0,0,0,0,0,0,0,0,0],"sum_hessian":[1.2129828E4,7.579913E3,4.5499155E3,3.214733E3,4.36518E3,4.1601772E3,3.897384E2,2.5698625E3,6.448705E2,4.362192E3,2.9880507E0,3.7286296E3,4.3154745E2,2.4953608E3,7.450164E1,4.0773018E3,2.848903E2,3.291416E1,3.6957156E3,3.2800677E2,1.0354067E2,2.4366165E3,5.874436E1,3.8185028E1,3.631661E1,2.715411E2,1.3349162E1,9.6251335E0,2.3289026E1,3.3820914E2,3.3575063E3,8.189323E1,2.4611356E2,7.2437096E1,2.3641794E3,1.9340443E1,1.8844584E1,2.941567E1,6.90094E0,3.202405E1,2.3951707E2,1.5535954E0,1.1795567E1,1.8238347E2,1.5582567E2,3.0841348E3,2.733718E2,8.065967E1,1.2335635E0,1.4784464E2,9.826892E1],"tree_param":{"num_deleted":"0","num_feature":"9","num_nodes":"51","size_leaf_vector":"1"}},{"base_weights":[-1.14496615E-4,-7.0052123E-1,1.1645845E0,1.1218707E-1,-1.2069443E0,1.3589901E0,-1.5306275E-1,-1.2335755E0,2.781634E-1,-1.2206147E0,1.6644157E0,1.5207001E0,-1.2626509E-2,-9.748207E-1,1.202027E0,-6.283569E-2,7.3901415E-1,1.6433878E-2,-1.2259586E0,-9.561129E-1,-6.318013E-2,-4.2757624E-1,1.0283696E-1,-3.398607E-1,1.5375142E0,-4.8524737E-1,8.339155E-2,-1.1781235E0,1.4411165E0,8.02635E-2,-1.1175743E0,4.8472144E-2,1.6265059E-3,-6.250854E-2,-4.6954122E-1,-6.2805235E-2,1.553327E0,1.3916152E-2,-4.1878413E-2,-5.9194833E-2,7.45618E-2,1.1456126E0,1.5796529E0,1.2292405E0,-1.1400563E0,-1.2321593E0,6.892251E-2,1.8446187E-2,7.505032E-2,4.3202445E-2,-6.093176E-2,1.7859219E-2,-4.359531E-2,1.0296296E-1,6.368407E-2,7.9993136E-2,2.9108642E-2,7.9333626E-2,7.287946E-2,-5.5737507E-2,8.216723E-2,-5.7750165E-2,4.917956E-2,5.5924118E-2,-6.263673E-2],"categories":[],"categories_nodes":[],"categories_segments":[],"categories_sizes":[],"default_left":[0,0,0,0,0,0,0,0,0,0,0,0,0,0,0,0,0,0,0,0,0,0,0,0,0,0,0,0,0,0,0,0,0,0,0,0,0,0,0,0,0,0,0,0,0,0,0,0,0,0,0,0,0,0,0,0,0,0,0,0,0,0,0,0,0],"id":11,"left_children":[1,3,5,7,9,11,13,15,17,19,21,23,25,27,29,-1,31,-1,33,35,-1,37,-1,39,41,43,-1,45,47,-1,49,-1,-1,-1,51,-1,53,-1,-1,-1,-1,55,57,59,61,63,-1,-1,-1,-1,-1,-1,-1,-1,-1,-1,-1,-1,-1,-1,-1,-1,-1,-1,-1],"loss_changes":[9.66797E3,3.0461335E3,1.1402637E3,6.351789E2,1.8100977E2,8.602827E2,6.393666E2,1.5179718E1,1.9270067E2,5.0398926E1,1.8959023E1,1.0905957E2,3.2646317E2,1.7719989E2,2.0457886E2,0E0,6.602855E-1,0E0,9.2298126E-1,4.8271912E2,0E0,1.4795102E0,0E0,5.105489E1,5.4975098E1,3.615506E2,0E0,4.7304993E1,1.2560577E0,0E0,7.600914E0,0E0,0E0,0E0,1.6948026E0,0E0,7.0884857E0,0E0,0E0,0E0,0E0,8.5441925E1,3.4570312E-1,8.835753E1,8.521149E0,1.706311E1,0E0,0E0,0E0,0E0,0E0,0E0,0E0,0E0,0E0,0E0,0E0,0E0,0E0,0E0,0E0,0E0,0E0,0E0,0E0],"parents":[2147483647,0,0,1,1,2,2,3,3,4,4,5,5,6,6,7,7,8,8,9,9,10,10,11,11,12,12,13,13,14,14,16,16,18,18,19,19,21,21,23,23,24,24,25,25,27,27,28,28,30,30,34,34,36,36,41,41,42,42,43,43,44,44,45,45],"right_children":[2,4,6,8,10,12,14,16,18,20,22,24,26,28,30,-1,32,-1,34,36,-1,38,-1,40,42,44,-1,46,48,-1,50,-1,-1,-1,52,-1,54,-1,-1,-1,-1,56,58,60,62,64,-1,-1,-1,-1,-1,-1,-1,-1,-1,-1,-1,-1,-1,-1,-1,-1,-1,-1,-1],"split_conditions":[-5.133277E-1,-6.2511057E-1,2.1354437E0,5.0447375E-1,2.5780022E-1,2.6719108E0,-3.1438047E-1,-7.618318E-1,5.3330153E-1,1.02506414E-1,-3.5166806E-1,-1.182197E0,2.7191785E-1,-4.0891472E-1,2.395186E0,-6.283569E-2,1.528386E0,1.6433878E-2,-5.2676755E-1,-1.182197E0,-6.318013E-2,-4.3867248E-1,1.0283696E-1,-1.7296809E0,-3.3861E-1,1.78007E-2,8.339155E-2,-8.071912E-1,-7.494026E-1,8.02635E-2,1.1675131E0,4.8472144E-2,1.6265059E-3,-6.250854E-2,4.9208647E-1,-6.2805235E-2,-5.505353E-1,1.3916152E-2,-4.1878413E-2,-5.9194833E-2,7.45618E-2,-1.6572836E-1,2.4568737E0,-1.1704534E0,2.2336063E0,-1.0089858E0,6.892251E-2,1.8446187E-2,7.505032E-2,4.3202445E-2,-6.093176E-2,1.7859219E-2,-4.359531E-2,1.0296296E-1,6.368407E-2,7.9993136E-2,2.9108642E-2,7.9333626E-2,7.287946E-2,-5.5737507E-2,8.216723E-2,-5.7750165E-2,4.917956E-2,5.5924118E-2,-6.263673E-2],"split_indices":[6,7,4,1,4,6,7,7,1,4,7,4,4,3,7,0,4,0,6,4,0,7,0,1,6,4,0,1,7,0,1,0,0,0,5,0,7,0,0,0,0,4,6,3,7,1,0,0,0,0,0,0,0,0,0,0,0,0,0,0,0,0,0,0,0],"split_type":[0,0,0,0,0,0,0,0,0,0,0,0,0,0,0,0,0,0,0,0,0,0,0,0,0,0,0,0,0,0,0,0,0,0,0,0,0,0,0,0,0,0,0,0,0,0,0,0,0,0,0,0,0,0,0,0,0,0,0,0,0,0,0,0,0],"sum_hessian":[1.1849443E4,7.399848E3,4.4495957E3,2.8411487E3,4.5586997E3,3.8774812E3,5.721144E2,3.1122827E2,2.5299204E3,4.5376714E3,2.1028496E1,3.468451E3,4.0903018E2,3.5631644E2,2.1579796E2,3.0797858E2,3.249671E0,2.448473E3,8.14475E1,6.3763E2,3.9000413E3,3.3066325E0,1.7721863E1,3.0891977E1,3.437559E3,3.1979935E2,8.9230835E1,3.2913208E2,2.7184347E1,1.8410144E2,3.1696524E1,2.1697667E0,1.0799046E0,7.82888E1,3.1586976E0,5.699898E2,6.764017E1,1.3328915E0,1.973741E0,2.1387125E1,9.504852E0,3.3647144E2,3.1010876E3,8.814135E1,2.3165799E2,3.2282687E2,6.3052278E0,1.8168987E0,2.5367447E1,1.1717048E0,3.0524818E1,1.070816E0,2.0878818E0,2.1812809E1,4.5827362E1,1.852676E2,1.5120384E2,2.9211042E3,1.7998328E2,1.297963E1,7.516172E1,2.3049182E2,1.1661626E0,2.3381934E0,3.2048868E2],"tree_param":{"num_deleted":"0","num_feature":"9","num_nodes":"65","size_leaf_vector":"1"}},{"base_weights":[-6.7747897E-3,-4.316577E-1,6.921134E-1,4.055871E-1,-1.0838934E0,9.785659E-1,-6.1997633E-2,1.879754E-1,1.4972073E0,-1.2332785E0,-4.2448398E-1,6.185382E-1,7.868E-2,2.4651216E-1,-6.14804E-2,1.2725224E0,1.5272845E0,-7.9200274E-1,-1.2389622E0,1.3329426E0,-6.1968613E-2,1.3292774E0,-1.0840656E0,2.9044363E-1,-1.1620607E0,7.60785E-2,-2.4063952E-1,1.5773463E0,1.361147E0,-1.2366436E0,7.566088E-2,-6.2166702E-2,-1.0068635E0,-6.0766138E-2,7.809939E-2,1.539282E0,5.4363024E-1,-1.144382E0,7.683253E-2,1.445993E-2,5.598299E-2,-6.2005915E-2,5.44908E-2,1.5362988E-2,-3.088951E-2,6.4296275E-2,8.18585E-2,7.734757E-2,2.4363557E-2,-6.274457E-2,-1.6669601E-2,7.183608E-2,-6.128319E-2,7.730077E-2,5.3322967E-2,7.92633E-3,3.506403E-2,3.7038095E-2,-5.8998078E-2],"categories":[],"categories_nodes":[],"categories_segments":[],"categories_sizes":[],"default_left":[0,0,0,0,0,0,0,0,0,0,0,0,0,0,0,0,0,0,0,0,0,0,0,0,0,0,0,0,0,0,0,0,0,0,0,0,0,0,0,0,0,0,0,0,0,0,0,0,0,0,0,0,0,0,0,0,0,0,0],"id":12,"left_children":[1,3,5,7,9,11,-1,13,15,17,19,21,-1,23,-1,25,27,29,31,33,-1,35,37,39,41,-1,43,45,47,49,-1,-1,51,-1,-1,53,55,57,-1,-1,-1,-1,-1,-1,-1,-1,-1,-1,-1,-1,-1,-1,-1,-1,-1,-1,-1,-1,-1],"loss_changes":[3.4503628E3,3.9465935E3,2.4326003E3,7.5158453E2,3.9962988E2,8.1877295E2,0E0,2.1938525E2,1.6105957E0,7.3242188E0,1.0783397E3,2.8883704E3,0E0,1.5728503E2,0E0,2.6024796E1,1.6694336E0,4.7874397E1,2.0634766E0,1.4119211E2,0E0,2.769292E2,1.1290588E2,2.2162933E0,1.487059E1,0E0,2.3566554E0,3.932129E0,1.7682373E1,2.108345E-1,0E0,0E0,3.6870438E1,0E0,0E0,2.5788574E0,2.15411E1,4.7013123E1,0E0,0E0,0E0,0E0,0E0,0E0,0E0,0E0,0E0,0E0,0E0,0E0,0E0,0E0,0E0,0E0,0E0,0E0,0E0,0E0,0E0],"parents":[2147483647,0,0,1,1,2,2,3,3,4,4,5,5,7,7,8,8,9,9,10,10,11,11,13,13,15,15,16,16,17,17,18,18,19,19,21,21,22,22,23,23,24,24,26,26,27,27,28,28,29,29,32,32,35,35,36,36,37,37],"right_children":[2,4,6,8,10,12,-1,14,16,18,20,22,-1,24,-1,26,28,30,32,34,-1,36,38,40,42,-1,44,46,48,50,-1,-1,52,-1,-1,54,56,58,-1,-1,-1,-1,-1,-1,-1,-1,-1,-1,-1,-1,-1,-1,-1,-1,-1,-1,-1,-1,-1],"split_conditions":[-3.6409727E-1,1.589769E-1,2.254553E0,-1.1539618E0,2.7191785E-1,2.7191785E-1,-6.1997633E-2,2.254553E0,-7.2454417E-1,-5.7539374E-1,2.254553E0,2.1544737E-1,7.868E-2,-6.126813E-1,-6.14804E-2,-1.0925788E-1,-5.6296456E-1,-7.618318E-1,-5.6296456E-1,-3.6050457E-1,-6.1968613E-2,-1.233755E-1,9.364704E-1,-8.451147E-1,-5.6296456E-1,7.60785E-2,-1.15912765E-1,-3.3513978E-1,-1.5161073E-1,7.58778E-1,7.566088E-2,-6.2166702E-2,-3.7652647E-1,-6.0766138E-2,7.809939E-2,-1.5161073E-1,-3.8669776E-2,-6.373763E-1,7.683253E-2,1.445993E-2,5.598299E-2,-6.2005915E-2,5.44908E-2,1.5362988E-2,-3.088951E-2,6.4296275E-2,8.18585E-2,7.734757E-2,2.4363557E-2,-6.274457E-2,-1.6669601E-2,7.183608E-2,-6.128319E-2,7.730077E-2,5.3322967E-2,7.92633E-3,3.506403E-2,3.7038095E-2,-5.8998078E-2],"split_indices":[7,4,0,4,4,4,0,0,7,7,0,4,0,7,0,4,7,7,7,0,0,4,3,2,7,0,5,4,4,3,0,0,7,0,0,4,4,3,0,0,0,0,0,0,0,0,0,0,0,0,0,0,0,0,0,0,0,0,0],"split_type":[0,0,0,0,0,0,0,0,0,0,0,0,0,0,0,0,0,0,0,0,0,0,0,0,0,0,0,0,0,0,0,0,0,0,0,0,0,0,0,0,0,0,0,0,0,0,0,0,0,0,0,0,0,0,0,0,0,0,0],"sum_hessian":[1.1617503E4,7.2253174E3,4.3921855E3,3.164094E3,4.0612231E3,3.8255017E3,5.6668396E2,2.639157E3,5.24937E2,3.310402E3,7.5082104E2,2.384681E3,1.4408209E3,2.5352925E3,1.0386457E2,6.708727E1,4.5784976E2,4.388128E1,3.2665208E3,2.3765256E2,5.131685E2,1.6825375E3,7.021433E2,2.4593816E3,7.591096E1,5.760127E1,9.486001E0,3.4530554E2,1.12544205E2,3.7174458E1,6.706823E0,3.2018535E3,6.4667305E1,1.9244116E1,2.1840845E2,1.3268969E3,3.556407E2,6.868976E2,1.524577E1,2.4570413E3,2.3403761E0,7.380203E1,2.108928E0,3.9430764E0,5.542925E0,6.2643536E1,2.8266202E2,9.217555E1,2.0368654E1,3.605672E1,1.1177353E0,4.8570395E0,5.9810265E1,1.306028E3,2.0868816E1,1.0388327E2,2.5175742E2,1.235697E1,6.745406E2],"tree_param":{"num_deleted":"0","num_feature":"9","num_nodes":"59","size_leaf_vector":"1"}},{"base_weights":[-8.11592E-3,-6.6920257E-1,1.0906721E0,8.464817E-2,-1.1744457E0,1.295188E0,-6.1171897E-2,2.4464165E-1,-6.1151166E-2,-1.1856986E0,-2.6619107E-1,1.4361633E0,6.515409E-2,2.745579E-1,-1.0406864E0,-1.1870735E0,-4.244189E-3,7.453783E-1,-5.656022E-1,2.904602E-1,1.4515504E0,-7.865495E-1,5.671801E-1,2.7775082E-1,2.2587705E-1,-6.155919E-2,5.972453E-2,-1.1971432E0,-1.0475553E0,6.1249185E-2,-4.6056867E-2,-2.3495303E-2,9.173168E-1,-9.094432E-1,3.7873402E-1,-8.9202845E-1,7.353892E-2,1.0354339E0,1.494104E0,6.9655544E-1,-9.879126E-1,-8.2285756E-1,6.008449E-1,1.3608373E-2,1.750739E-2,8.947216E-3,1.3592616E-2,-6.0404863E-2,-5.7937253E-2,2.7312482E-2,-5.5419475E-2,5.998219E-2,2.0611094E-2,-4.821698E-2,3.509213E-3,-1.6805595E-2,3.244807E-2,2.5727252E-2,-5.9577484E-2,-1.2330293E-2,5.228917E-2,7.500386E-2,6.854767E-2,-1.5438964E-2,7.4776046E-2,-5.136053E-2,-8.2761375E-3,-4.8396695E-2,-7.4268775E-3,2.7937982E-2,7.505607E-2],"categories":[],"categories_nodes":[],"categories_segments":[],"categories_sizes":[],"default_left":[0,0,0,0,0,0,0,0,0,0,0,0,0,0,0,0,0,0,0,0,0,0,0,0,0,0,0,0,0,0,0,0,0,0,0,0,0,0,0,0,0,0,0,0,0,0,0,0,0,0,0,0,0,0,0,0,0,0,0,0,0,0,0,0,0,0,0,0,0,0,0],"id":13,"left_children":[1,3,5,7,9,11,-1,13,-1,15,17,19,21,23,25,27,29,31,33,35,37,39,41,43,45,-1,-1,47,49,-1,-1,-1,51,53,55,57,-1,59,61,63,65,67,69,-1,-1,-1,-1,-1,-1,-1,-1,-1,-1,-1,-1,-1,-1,-1,-1,-1,-1,-1,-1,-1,-1,-1,-1,-1,-1,-1,-1],"loss_changes":[8.222575E3,2.6919634E3,2.0140259E3,5.938438E2,4.2933105E1,6.774658E2,0E0,9.7513E1,0E0,6.7836914E0,1.6496729E1,6.137744E1,1.7268655E2,3.2148743E-1,2.6048386E1,4.61084E0,7.7350383E0,3.054078E0,1.3826701E1,6.7897E1,5.9699707E1,4.5426796E1,1.238147E1,8.405762E-1,2.9119587E-1,0E0,0E0,2.3486328E-1,2.862851E1,0E0,0E0,0E0,1.1220112E0,1.7204361E0,2.49543E0,1.0915527E1,0E0,4.559021E0,2.5048828E-1,1.5317104E1,4.106064E0,4.851246E-1,8.580055E0,0E0,0E0,0E0,0E0,0E0,0E0,0E0,0E0,0E0,0E0,0E0,0E0,0E0,0E0,0E0,0E0,0E0,0E0,0E0,0E0,0E0,0E0,0E0,0E0,0E0,0E0,0E0,0E0],"parents":[2147483647,0,0,1,1,2,2,3,3,4,4,5,5,7,7,9,9,10,10,11,11,12,12,13,13,14,14,15,15,16,16,17,17,18,18,19,19,20,20,21,21,22,22,23,23,24,24,27,27,28,28,32,32,33,33,34,34,35,35,37,37,38,38,39,39,40,40,41,41,42,42],"right_children":[2,4,6,8,10,12,-1,14,-1,16,18,20,22,24,26,28,30,32,34,36,38,40,42,44,46,-1,-1,48,50,-1,-1,-1,52,54,56,58,-1,60,62,64,66,68,70,-1,-1,-1,-1,-1,-1,-1,-1,-1,-1,-1,-1,-1,-1,-1,-1,-1,-1,-1,-1,-1,-1,-1,-1,-1,-1,-1,-1],"split_conditions":[-5.133277E-1,-6.2511057E-1,2.254553E0,2.254553E0,-5.2676755E-1,2.6719108E0,-6.1171897E-2,-1.1704534E0,-6.1151166E-2,2.2460356E0,-9.1606915E-2,-1.1577611E0,-5.505353E-1,7.635834E-1,-7.618318E-1,-5.402074E-1,2.254553E0,-1.0785655E0,5.683933E-1,-5.6296456E-1,-3.3861E-1,-5.7539374E-1,-1.339481E0,6.836775E-1,8.035364E-1,-6.155919E-2,5.972453E-2,-5.6296456E-1,-2.946839E-1,6.1249185E-2,-4.6056867E-2,-2.3495303E-2,-4.2160702E-1,1.7915053E0,3.3637237E-2,1.7365757E0,7.353892E-2,-7.618318E-1,2.497193E0,-7.369734E-1,2.6853507E0,2.8331888E0,2.2460356E0,1.3608373E-2,1.750739E-2,8.947216E-3,1.3592616E-2,-6.0404863E-2,-5.7937253E-2,2.7312482E-2,-5.5419475E-2,5.998219E-2,2.0611094E-2,-4.821698E-2,3.509213E-3,-1.6805595E-2,3.244807E-2,2.5727252E-2,-5.9577484E-2,-1.2330293E-2,5.228917E-2,7.500386E-2,6.854767E-2,-1.5438964E-2,7.4776046E-2,-5.136053E-2,-8.2761375E-3,-4.8396695E-2,-7.4268775E-3,2.7937982E-2,7.505607E-2],"split_indices":[6,7,0,0,6,6,0,3,0,7,3,3,7,8,7,6,0,2,3,7,6,7,2,8,8,0,0,7,3,0,0,0,3,2,7,2,0,7,6,7,6,6,7,0,0,0,0,0,0,0,0,0,0,0,0,0,0,0,0,0,0,0,0,0,0,0,0,0,0,0,0],"split_type":[0,0,0,0,0,0,0,0,0,0,0,0,0,0,0,0,0,0,0,0,0,0,0,0,0,0,0,0,0,0,0,0,0,0,0,0,0,0,0,0,0,0,0,0,0,0,0,0,0,0,0,0,0,0,0,0,0,0,0,0,0,0,0,0,0,0,0,0,0,0,0],"sum_hessian":[1.1317712E4,7.066524E3,4.251188E3,2.8359548E3,4.230569E3,3.9063906E3,3.447976E2,2.5275254E3,3.0842957E2,4.1784937E3,5.2075138E1,3.5045618E3,4.0182874E2,2.4708035E3,5.6721977E1,4.173632E3,4.8617973E0,1.1553115E1,4.0522022E1,4.6706825E1,3.457855E3,1.4880664E2,2.530221E2,2.3143047E3,1.5649864E2,5.268129E1,4.0406876E0,3.8856084E3,2.8802335E2,1.933562E0,2.9282353E0,1.217149E0,1.0335966E1,2.9732948E1,1.0789074E1,2.3453972E1,2.3252853E1,3.2315707E2,3.134698E3,1.749453E1,1.3131212E2,5.42863E0,2.4759346E2,2.1530198E3,1.6128499E2,7.986382E1,7.663482E1,2.999472E3,8.8613654E2,1.0296051E1,2.777273E2,5.7479916E0,4.587974E0,2.8169966E1,1.562984E0,2.8927984E0,7.896276E0,3.9915357E0,1.9462437E1,2.405064E0,3.20752E2,2.9790261E3,1.5567166E2,8.018462E0,9.4760685E0,1.25085815E2,6.2262964E0,4.1091466E0,1.3194829E0,2.3808435E2,9.5091095E0],"tree_param":{"num_deleted":"0","num_feature":"9","num_nodes":"71","size_leaf_vector":"1"}},{"base_weights":[-4.9387054E-3,-6.4754456E-1,1.0652009E0,9.306499E-2,-1.1584574E0,-6.04618E-2,1.2411582E0,-1.1884856E0,2.3276173E-1,-1.1718553E0,1.516143E0,1.4032094E0,-3.2488666E-2,-6.0599852E-2,6.658884E-1,2.7447844E-1,-1.1783502E0,-8.899988E-1,-6.0956355E-2,-4.5511406E-2,9.4962195E-2,-2.487043E-1,1.4174756E0,1.3026277E0,-3.463153E-1,-1.6375788E-2,5.4896303E-2,1.7911129E-2,2.7163318E-1,-5.9679564E-2,-5.684997E-1,-6.0640514E-2,1.390626E0,6.899601E-2,-5.6439366E-2,1.0238016E0,7.29583E-2,-7.9585475E-1,1.5339816E0,-1.0967149E0,9.196232E-1,1.28264455E-2,1.4278059E-2,-3.1587386E-3,-3.8189393E-2,9.485794E-2,5.604067E-2,7.448738E-2,2.4975939E-2,-5.3150177E-2,3.0176586E-2,7.725717E-2,2.2793548E-2,-5.5349763E-2,2.2231929E-2,7.768789E-2,-5.6907114E-2],"categories":[],"categories_nodes":[],"categories_segments":[],"categories_sizes":[],"default_left":[0,0,0,0,0,0,0,0,0,0,0,0,0,0,0,0,0,0,0,0,0,0,0,0,0,0,0,0,0,0,0,0,0,0,0,0,0,0,0,0,0,0,0,0,0,0,0,0,0,0,0,0,0,0,0,0,0],"id":14,"left_children":[1,3,5,7,9,-1,11,13,15,17,19,21,23,-1,25,27,29,31,-1,-1,-1,33,35,37,39,-1,-1,-1,41,-1,43,-1,45,-1,-1,47,-1,49,51,53,55,-1,-1,-1,-1,-1,-1,-1,-1,-1,-1,-1,-1,-1,-1,-1,-1],"loss_changes":[7.652635E3,2.6310376E3,1.6724346E3,5.0860565E2,1.492207E2,0E0,8.000132E2,1.2982086E1,1.5108907E2,5.3472168E1,2.1197762E1,8.13833E1,1.8416351E2,0E0,2.1371408E0,4.955902E-1,6.7367554E-3,4.3738678E2,0E0,0E0,0E0,4.4974747E1,5.4458984E1,4.1835907E1,3.3900604E2,0E0,0E0,0E0,4.3391418E-1,0E0,3.175838E-1,0E0,7.9662933E0,0E0,0E0,7.9824036E1,0E0,3.9933128E0,2.0643616E-1,4.0391846E0,1.7526666E2,0E0,0E0,0E0,0E0,0E0,0E0,0E0,0E0,0E0,0E0,0E0,0E0,0E0,0E0,0E0,0E0],"parents":[2147483647,0,0,1,1,2,2,3,3,4,4,6,6,7,7,8,8,9,9,10,10,11,11,12,12,14,14,15,15,16,16,17,17,21,21,22,22,23,23,24,24,28,28,30,30,32,32,35,35,37,37,38,38,39,39,40,40],"right_children":[2,4,6,8,10,-1,12,14,16,18,20,22,24,-1,26,28,30,32,-1,-1,-1,34,36,38,40,-1,-1,-1,42,-1,44,-1,46,-1,-1,48,-1,50,52,54,56,-1,-1,-1,-1,-1,-1,-1,-1,-1,-1,-1,-1,-1,-1,-1,-1],"split_conditions":[-5.133277E-1,-6.2511057E-1,-1.7135016E0,5.1888764E-1,2.5780022E-1,-6.04618E-2,2.6719108E0,-7.618318E-1,5.3330153E-1,1.3074166E-1,-1.7135016E0,-1.182197E0,1.78007E-2,-6.0599852E-2,-2.3524114E-1,-3.9505306E-1,-5.2676755E-1,-1.182197E0,-6.0956355E-2,-4.5511406E-2,9.4962195E-2,1.6953785E0,-3.3861E-1,-1.182197E0,2.7191785E-1,-1.6375788E-2,5.4896303E-2,1.7911129E-2,2.0424168E-1,-5.9679564E-2,5.874589E-1,-6.0640514E-2,-5.505353E-1,6.899601E-2,-5.6439366E-2,-1.6572836E-1,7.29583E-2,-7.618318E-1,1.8601673E0,2.2336063E0,2.395186E0,1.28264455E-2,1.4278059E-2,-3.1587386E-3,-3.8189393E-2,9.485794E-2,5.604067E-2,7.448738E-2,2.4975939E-2,-5.3150177E-2,3.0176586E-2,7.725717E-2,2.2793548E-2,-5.5349763E-2,2.2231929E-2,7.768789E-2,-5.6907114E-2],"split_indices":[6,7,8,1,4,0,6,7,1,4,8,4,4,0,8,8,6,4,0,0,0,2,6,4,4,0,0,0,8,0,5,0,7,0,0,4,0,7,2,7,7,0,0,0,0,0,0,0,0,0,0,0,0,0,0,0,0],"split_type":[0,0,0,0,0,0,0,0,0,0,0,0,0,0,0,0,0,0,0,0,0,0,0,0,0,0,0,0,0,0,0,0,0,0,0,0,0,0,0,0,0,0,0,0,0,0,0,0,0,0,0,0,0,0,0,0,0],"sum_hessian":[1.1126221E4,6.9520146E3,4.1742056E3,2.8383762E3,4.1136387E3,2.9931863E2,3.874887E3,2.782507E2,2.5601255E3,4.0936938E3,1.9944675E1,3.4374275E3,4.3745953E2,2.7510904E2,3.141665E0,2.487396E3,7.27294E1,5.908136E2,3.5028804E3,2.53204E0,1.7412634E1,2.929119E1,3.4081365E3,8.2657585E1,3.5480194E2,1.0255342E0,2.1161308E0,7.7629234E1,2.4097668E3,7.0022255E1,2.7071452E0,5.179662E2,7.284742E1,1.007644E1,1.9214748E1,3.2880908E2,3.0793271E3,7.9656453E0,7.469194E1,2.2284293E2,1.3195903E2,1.1653806E3,1.2443861E3,1.1234964E0,1.5836488E0,2.3221376E1,4.9626045E1,1.7311502E2,1.5569408E2,6.890583E0,1.0750625E0,7.349782E1,1.194128E0,2.2164641E2,1.1965193E0,1.01060486E2,3.0898539E1],"tree_param":{"num_deleted":"0","num_feature":"9","num_nodes":"57","size_leaf_vector":"1"}},{"base_weights":[-4.203061E-3,-6.2820214E-1,1.031761E0,9.61886E-2,-1.1472536E0,1.2246094E0,-5.986647E-2,2.4150728E-1,-5.9840806E-2,-1.1603969E0,1.4840187E0,1.3608915E0,3.7173964E-2,2.7014393E-1,-1.1508654E0,-8.8942575E-1,-6.028815E-2,9.09674E-2,-4.330447E-2,-2.8433704E-1,1.3752271E0,-4.602934E-1,7.558506E-2,1.9653285E-2,2.5705588E-1,-6.019866E-2,2.6787326E-2,-6.000317E-2,1.2995328E0,6.678278E-2,-5.58311E-2,9.61345E-1,1.419355E0,1.509224E0,-1.0917515E0,1.2791278E-2,5.35562E-2,8.997551E-2,5.107069E-2,7.241925E-2,1.9808792E-2,7.1396396E-2,6.593666E-2,7.605065E-2,2.2230666E-2,-5.52991E-2,3.1412926E-2],"categories":[],"categories_nodes":[],"categories_segments":[],"categories_sizes":[],"default_left":[0,0,0,0,0,0,0,0,0,0,0,0,0,0,0,0,0,0,0,0,0,0,0,0,0,0,0,0,0,0,0,0,0,0,0,0,0,0,0,0,0,0,0,0,0,0,0],"id":15,"left_children":[1,3,5,7,9,11,-1,13,-1,15,17,19,21,23,25,27,-1,-1,-1,29,31,33,-1,-1,35,-1,-1,-1,37,-1,-1,39,41,43,45,-1,-1,-1,-1,-1,-1,-1,-1,-1,-1,-1,-1],"loss_changes":[6.9991553E3,2.5407695E3,1.7510962E3,5.3045447E2,1.3786182E2,6.0623E2,0E0,1.0148131E2,0E0,4.7085938E1,1.7340313E1,7.965527E1,2.8438403E2,3.9000854E0,5.242134E0,3.861745E2,0E0,0E0,0E0,4.1750916E1,5.948828E1,3.622472E2,0E0,0E0,1.9800873E0,0E0,0E0,0E0,8.003326E0,0E0,0E0,8.864249E1,7.128906E-1,2.1247864E-1,6.083008E0,0E0,0E0,0E0,0E0,0E0,0E0,0E0,0E0,0E0,0E0,0E0,0E0],"parents":[2147483647,0,0,1,1,2,2,3,3,4,4,5,5,7,7,9,9,10,10,11,11,12,12,13,13,14,14,15,15,19,19,20,20,21,21,24,24,28,28,31,31,32,32,33,33,34,34],"right_children":[2,4,6,8,10,12,-1,14,-1,16,18,20,22,24,26,28,-1,-1,-1,30,32,34,-1,-1,36,-1,-1,-1,38,-1,-1,40,42,44,46,-1,-1,-1,-1,-1,-1,-1,-1,-1,-1,-1,-1],"split_conditions":[-5.133277E-1,-6.2511057E-1,2.254553E0,2.254553E0,2.5780022E-1,2.6719108E0,-5.986647E-2,-3.3513978E-1,-5.9840806E-2,1.3074166E-1,2.254553E0,-1.182197E0,2.7191785E-1,-3.151471E-1,4.413293E-1,-1.182197E0,-6.028815E-2,9.09674E-2,-4.330447E-2,1.7365757E0,-3.3861E-1,1.78007E-2,7.558506E-2,1.9653285E-2,-1.182197E0,-6.019866E-2,2.6787326E-2,-6.000317E-2,-5.505353E-1,6.678278E-2,-5.58311E-2,-1.6572836E-1,2.3762348E0,1.8738997E0,2.2336063E0,1.2791278E-2,5.35562E-2,8.997551E-2,5.107069E-2,7.241925E-2,1.9808792E-2,7.1396396E-2,6.593666E-2,7.605065E-2,2.2230666E-2,-5.52991E-2,3.1412926E-2],"split_indices":[6,7,0,0,4,6,0,4,0,4,0,4,4,8,4,4,0,0,0,2,6,4,0,0,4,0,0,0,7,0,0,4,6,2,7,0,0,0,0,0,0,0,0,0,0,0,0],"split_type":[0,0,0,0,0,0,0,0,0,0,0,0,0,0,0,0,0,0,0,0,0,0,0,0,0,0,0,0,0,0,0,0,0,0,0,0,0,0,0,0,0,0,0,0,0,0,0],"sum_hessian":[1.0825218E4,6.7561406E3,4.0690771E3,2.8205635E3,3.9355771E3,3.7454893E3,3.2358798E2,2.5363235E3,2.8424002E2,3.9165728E3,1.9004301E1,3.3597449E3,3.8574432E2,2.4860005E3,5.0323093E1,5.64633E2,3.35194E3,1.6828886E1,2.1754148E0,2.8859547E1,3.3308855E3,2.8894843E2,9.67959E1,2.3643076E2,2.2495696E3,4.9064327E1,1.2587696E0,4.948588E2,6.977419E1,9.589451E0,1.9270096E1,3.231166E2,3.0077688E3,6.9812675E1,2.1913576E2,2.2474873E3,2.0824735E0,2.298447E1,4.6789726E1,1.7271504E2,1.5040157E2,2.7594775E3,2.4829123E2,6.862407E1,1.1886059E0,2.1769168E2,1.4440805E0],"tree_param":{"num_deleted":"0","num_feature":"9","num_nodes":"47","size_leaf_vector":"1"}},{"base_weights":[-2.14447E-3,-6.1475414E-1,1.0177728E0,8.443762E-2,-1.1333934E0,1.201596E0,-5.9275538E-2,2.2148256E-1,-5.9256326E-2,-1.1470653E0,1.4326588E0,1.3338312E0,5.9064228E-2,2.4844931E-1,-1.1365266E0,-8.672358E-1,-5.9698563E-2,8.8152714E-2,-4.3150693E-2,-3.1562713E-1,1.3471587E0,-4.361448E-1,7.371743E-2,2.4750902E-1,4.957204E-2,-5.943178E-2,2.767363E-2,-5.9408493E-2,1.2832546E0,-5.686916E-2,6.538062E-2,9.6171373E-1,6.9399424E-2,1.4220527E0,-1.0635568E0,1.2834362E-2,1.0393406E-2,7.7907845E-2,4.548559E-2,7.074948E-2,2.3774453E-2,7.367251E-2,2.9494647E-2,-5.3702265E-2,2.0948775E-2],"categories":[],"categories_nodes":[],"categories_segments":[],"categories_sizes":[],"default_left":[0,0,0,0,0,0,0,0,0,0,0,0,0,0,0,0,0,0,0,0,0,0,0,0,0,0,0,0,0,0,0,0,0,0,0,0,0,0,0,0,0,0,0,0,0],"id":16,"left_children":[1,3,5,7,9,11,-1,13,-1,15,17,19,21,23,25,27,-1,-1,-1,29,31,33,-1,35,-1,-1,-1,-1,37,-1,-1,39,-1,41,43,-1,-1,-1,-1,-1,-1,-1,-1,-1,-1],"loss_changes":[6.59038E3,2.38971E3,1.6045068E3,4.8869675E2,1.3437598E2,5.519458E2,0E0,9.310322E1,0E0,4.8368652E1,1.7067158E1,7.2413086E1,2.6701514E2,1.4914703E0,5.019787E0,3.7697397E2,0E0,0E0,0E0,3.7579483E1,4.9791992E1,3.306581E2,0E0,8.5050964E-1,0E0,0E0,0E0,0E0,5.8860245E0,0E0,0E0,6.862387E1,0E0,2.197113E0,3.7407532E0,0E0,0E0,0E0,0E0,0E0,0E0,0E0,0E0,0E0,0E0],"parents":[2147483647,0,0,1,1,2,2,3,3,4,4,5,5,7,7,9,9,10,10,11,11,12,12,13,13,14,14,15,15,19,19,20,20,21,21,23,23,28,28,31,31,33,33,34,34],"right_children":[2,4,6,8,10,12,-1,14,-1,16,18,20,22,24,26,28,-1,-1,-1,30,32,34,-1,36,-1,-1,-1,-1,38,-1,-1,40,-1,42,44,-1,-1,-1,-1,-1,-1,-1,-1,-1,-1],"split_conditions":[-5.133277E-1,-6.49969E-1,2.254553E0,2.254553E0,2.5780022E-1,2.6719108E0,-5.9275538E-2,-3.3513978E-1,-5.9256326E-2,1.3074166E-1,2.254553E0,-1.182197E0,2.7191785E-1,-1.1704534E0,-7.618318E-1,-1.182197E0,-5.9698563E-2,8.8152714E-2,-4.3150693E-2,-1.1577611E0,-3.3861E-1,1.78007E-2,7.371743E-2,6.037715E-1,4.957204E-2,-5.943178E-2,2.767363E-2,-5.9408493E-2,-1.7984597E-1,-5.686916E-2,6.538062E-2,-1.6572836E-1,6.9399424E-2,-2.4552159E-2,2.2336063E0,1.2834362E-2,1.0393406E-2,7.7907845E-2,4.548559E-2,7.074948E-2,2.3774453E-2,7.367251E-2,2.9494647E-2,-5.3702265E-2,2.0948775E-2],"split_indices":[6,7,0,0,4,6,0,4,0,4,0,4,4,3,7,4,0,0,0,3,6,4,0,8,0,0,0,0,4,0,0,4,0,4,7,0,0,0,0,0,0,0,0,0,0],"split_type":[0,0,0,0,0,0,0,0,0,0,0,0,0,0,0,0,0,0,0,0,0,0,0,0,0,0,0,0,0,0,0,0,0,0,0,0,0,0,0,0,0,0,0,0,0],"sum_hessian":[1.0545793E4,6.588707E3,3.957086E3,2.806298E3,3.7824092E3,3.6527837E3,3.043024E2,2.5336274E3,2.7267053E2,3.7629133E3,1.9495756E1,3.2737197E3,3.790638E2,2.4850964E3,4.8530922E1,5.429989E2,3.2199146E3,1.724574E1,2.250014E0,2.605753E1,3.2476624E3,2.8132117E2,9.7742645E1,2.4832869E3,1.8095968E0,4.736708E1,1.1638423E0,4.7287555E2,7.012332E1,1.749838E1,8.559147E0,3.1342212E2,2.93424E3,7.069076E1,2.106304E2,2.0119716E3,4.7131537E2,3.856834E1,3.1554977E1,1.6121848E2,1.5220366E2,6.58528E1,4.8379583E0,2.0942432E2,1.2060869E0],"tree_param":{"num_deleted":"0","num_feature":"9","num_nodes":"45","size_leaf_vector":"1"}},{"base_weights":[-4.8637672E-4,-5.9254986E-1,9.9400413E-1,2.5989724E-2,-1.1666393E0,1.1769583E0,-5.8727007E-2,2.502618E-1,-5.8837343E-2,-1.1688049E0,5.8482766E-2,1.30382E0,6.7745514E-2,2.2350608E-1,1.1968508E0,-5.9133735E-2,-9.717894E-1,-2.432886E-1,1.3174243E0,-4.014865E-1,7.193073E-2,-5.7811E-2,1.2383495E-2,1.5089744E0,7.528979E-1,-1.0902115E0,9.965192E-1,-5.458824E-2,6.470476E-2,9.511221E-1,1.3579136E0,1.383834E0,-1.0439382E0,2.5530973E-2,7.754725E-2,-2.9624337E-2,7.877121E-2,-2.6584426E-2,-5.8608968E-2,5.959895E-2,-3.4878902E-2,6.9326855E-2,2.3574699E-2,6.835576E-2,6.2111385E-2,7.2580785E-2,3.3086225E-2,-5.898453E-2,-4.3206137E-2],"categories":[],"categories_nodes":[],"categories_segments":[],"categories_sizes":[],"default_left":[0,0,0,0,0,0,0,0,0,0,0,0,0,0,0,0,0,0,0,0,0,0,0,0,0,0,0,0,0,0,0,0,0,0,0,0,0,0,0,0,0,0,0,0,0,0,0,0,0],"id":17,"left_children":[1,3,5,7,9,11,-1,13,-1,15,-1,17,19,21,23,-1,25,27,29,31,-1,-1,-1,33,35,37,39,-1,-1,41,43,45,47,-1,-1,-1,-1,-1,-1,-1,-1,-1,-1,-1,-1,-1,-1,-1,-1],"loss_changes":[6.043219E3,2.2845361E3,1.5209631E3,8.359021E2,1.8249023E1,4.9701123E2,0E0,6.58804E1,0E0,7.9609375E0,0E0,6.7041016E1,2.3447694E2,8.500931E1,8.780434E0,0E0,5.350522E1,3.855815E1,4.5315918E1,3.1305222E2,0E0,0E0,0E0,9.270859E-1,3.583493E1,9.1098175E0,5.2304325E0,0E0,0E0,6.536502E1,1.3115234E0,2.5793E0,3.8713226E0,0E0,0E0,0E0,0E0,0E0,0E0,0E0,0E0,0E0,0E0,0E0,0E0,0E0,0E0,0E0,0E0],"parents":[2147483647,0,0,1,1,2,2,3,3,4,4,5,5,7,7,9,9,11,11,12,12,13,13,14,14,16,16,17,17,18,18,19,19,23,23,24,24,25,25,26,26,29,29,30,30,31,31,32,32],"right_children":[2,4,6,8,10,12,-1,14,-1,16,-1,18,20,22,24,-1,26,28,30,32,-1,-1,-1,34,36,38,40,-1,-1,42,44,46,48,-1,-1,-1,-1,-1,-1,-1,-1,-1,-1,-1,-1,-1,-1,-1,-1],"split_conditions":[-5.133277E-1,1.3074166E-1,2.254553E0,2.254553E0,2.2625022E0,2.6719108E0,-5.8727007E-2,-1.182197E0,-5.8837343E-2,2.4368261E-1,5.8482766E-2,-1.182197E0,2.7191785E-1,2.0178182E-1,-2.2219883E-1,-5.9133735E-2,-5.402074E-1,-1.1577611E0,-3.3861E-1,3.191832E-2,7.193073E-2,-5.7811E-2,1.2383495E-2,-1.0269032E0,-5.2787397E-2,2.254553E0,2.254553E0,-5.458824E-2,6.470476E-2,-1.6572836E-1,2.3896744E0,-2.4552159E-2,2.6987906E0,2.5530973E-2,7.754725E-2,-2.9624337E-2,7.877121E-2,-2.6584426E-2,-5.8608968E-2,5.959895E-2,-3.4878902E-2,6.9326855E-2,2.3574699E-2,6.835576E-2,6.2111385E-2,7.2580785E-2,3.3086225E-2,-5.898453E-2,-4.3206137E-2],"split_indices":[6,4,0,0,4,6,0,4,0,4,0,4,4,1,4,0,6,3,6,4,0,0,0,4,4,0,0,0,0,4,6,4,6,0,0,0,0,0,0,0,0,0,0,0,0,0,0,0,0],"split_type":[0,0,0,0,0,0,0,0,0,0,0,0,0,0,0,0,0,0,0,0,0,0,0,0,0,0,0,0,0,0,0,0,0,0,0,0,0,0,0,0,0,0,0,0,0,0,0,0,0],"sum_hessian":[1.0261595E4,6.4324697E3,3.829125E3,3.096823E3,3.3356465E3,3.5316282E3,2.9749664E2,2.6107864E3,4.8603665E2,3.3330566E3,2.5898566E0,3.1690103E3,3.626181E2,2.540222E3,7.056435E1,3.1091714E3,2.2388531E2,2.7476198E1,3.141534E3,2.7067606E2,9.194203E1,4.2916054E1,2.497306E3,4.002534E1,3.0539007E1,2.1160062E2,1.2284707E1,1.7891695E1,9.584502E0,3.1512537E2,2.8264087E3,7.132255E1,1.993535E2,2.1459386E0,3.7879402E1,1.1692904E1,1.8846104E1,2.803804E1,1.8356258E2,1.1279685E1,1.0050226E0,1.6418471E2,1.5094066E2,2.6081418E3,2.1826677E2,6.427871E1,7.0438433E0,1.104262E2,8.89273E1],"tree_param":{"num_deleted":"0","num_feature":"9","num_nodes":"49","size_leaf_vector":"1"}},{"base_weights":[-4.018979E-3,-5.837341E-1,9.715308E-1,7.257552E-2,-1.1096494E0,1.1468617E0,-5.821051E-2,1.9323911E-1,-5.8186937E-2,-1.1243811E0,1.3088746E0,1.2737695E0,6.0973108E-2,2.177414E-1,-1.1146166E0,-8.456923E-1,-5.858856E-2,8.373367E-2,-4.518706E-2,-2.6646948E-1,1.2875443E0,-3.8704604E-1,7.0359156E-2,2.1653783E-1,5.216549E-2,-5.8283146E-2,1.7022198E-2,-5.8338344E-2,1.2074641E0,-5.4105826E-2,6.322908E-2,8.678101E-1,1.3347218E0,1.3885967E0,-1.0232522E0,1.4401056E-2,1.0458923E-2,7.46124E-2,4.1550178E-2,2.771218E-2,8.303372E-2,6.714414E-2,6.035626E-2,7.0520274E-2,1.2135644E-2,-5.1912244E-2,3.1287473E-2],"categories":[],"categories_nodes":[],"categories_segments":[],"categories_sizes":[],"default_left":[0,0,0,0,0,0,0,0,0,0,0,0,0,0,0,0,0,0,0,0,0,0,0,0,0,0,0,0,0,0,0,0,0,0,0,0,0,0,0,0,0,0,0,0,0,0,0],"id":18,"left_children":[1,3,5,7,9,11,-1,13,-1,15,17,19,21,23,25,27,-1,-1,-1,29,31,33,-1,35,-1,-1,-1,-1,37,-1,-1,39,41,43,45,-1,-1,-1,-1,-1,-1,-1,-1,-1,-1,-1,-1],"loss_changes":[5.688993E3,2.1779941E3,1.4054053E3,4.1909763E2,1.2627783E2,4.7751074E2,0E0,8.2248634E1,0E0,4.499951E1,1.9052505E1,6.617529E1,2.1989891E2,2.270897E0,3.90448E0,3.3740018E2,0E0,0E0,0E0,3.6750095E1,5.974463E1,3.105725E2,0E0,1.2604218E0,0E0,0E0,0E0,0E0,6.202179E0,0E0,0E0,7.7050766E1,1.2558594E0,1.4722595E0,5.644943E0,0E0,0E0,0E0,0E0,0E0,0E0,0E0,0E0,0E0,0E0,0E0,0E0],"parents":[2147483647,0,0,1,1,2,2,3,3,4,4,5,5,7,7,9,9,10,10,11,11,12,12,13,13,14,14,15,15,19,19,20,20,21,21,23,23,28,28,31,31,32,32,33,33,34,34],"right_children":[2,4,6,8,10,12,-1,14,-1,16,18,20,22,24,26,28,-1,-1,-1,30,32,34,-1,36,-1,-1,-1,-1,38,-1,-1,40,42,44,46,-1,-1,-1,-1,-1,-1,-1,-1,-1,-1,-1,-1],"split_conditions":[-5.133277E-1,-6.2511057E-1,2.254553E0,2.254553E0,2.5780022E-1,2.6719108E0,-5.821051E-2,-3.3513978E-1,-5.8186937E-2,1.3074166E-1,2.254553E0,-1.182197E0,2.7191785E-1,-1.1704534E0,-7.618318E-1,-1.182197E0,-5.858856E-2,8.373367E-2,-4.518706E-2,-1.1577611E0,-3.3861E-1,3.191832E-2,7.0359156E-2,-3.151471E-1,5.216549E-2,-5.8283146E-2,1.7022198E-2,-5.8338344E-2,-1.9396359E-1,-5.4105826E-2,6.322908E-2,2.4368261E-1,2.4434338E0,1.78007E-2,2.2336063E0,1.4401056E-2,1.0458923E-2,7.46124E-2,4.1550178E-2,2.771218E-2,8.303372E-2,6.714414E-2,6.035626E-2,7.0520274E-2,1.2135644E-2,-5.1912244E-2,3.1287473E-2],"split_indices":[6,7,0,0,4,6,0,4,0,4,0,4,4,3,7,4,0,0,0,3,6,4,0,8,0,0,0,0,4,0,0,4,6,4,7,0,0,0,0,0,0,0,0,0,0,0,0],"split_type":[0,0,0,0,0,0,0,0,0,0,0,0,0,0,0,0,0,0,0,0,0,0,0,0,0,0,0,0,0,0,0,0,0,0,0,0,0,0,0,0,0,0,0,0,0,0,0],"sum_hessian":[1.0057381E4,6.3088076E3,3.748573E3,2.80687E3,3.5019375E3,3.464613E3,2.8395987E2,2.5580496E3,2.4882056E2,3.4812676E3,2.0669926E1,3.1019185E3,3.6269446E2,2.511825E3,4.622479E1,5.086828E2,2.9725847E3,1.7946123E1,2.7238026E0,2.7332605E1,3.074586E3,2.726642E2,9.003025E1,2.5094287E3,2.3961167E0,4.485025E1,1.3745403E0,4.4026538E2,6.841743E1,1.8023857E1,9.308749E0,3.1262137E2,2.7619646E3,7.161239E1,2.0105182E2,2.3067625E2,2.2787524E3,3.7264088E1,3.115334E1,2.2524088E2,8.73805E1,2.5869785E3,1.7498601E2,7.004837E1,1.5640239E0,1.9960739E2,1.4444336E0],"tree_param":{"num_deleted":"0","num_feature":"9","num_nodes":"47","size_leaf_vector":"1"}},{"base_weights":[-1.0117397E-2,-5.736457E-1,9.5418173E-1,6.1791323E-2,-1.1016828E0,1.1284509E0,-5.772856E-2,1.7948687E-1,-5.7708897E-2,-1.116409E0,1.3017541E0,1.2509478E0,6.2045313E-2,2.0291275E-1,-1.1026165E0,-8.4352183E-1,-5.810923E-2,8.046397E-2,-4.2755675E-2,-2.609352E-1,1.263399E0,-3.886842E-1,6.8932705E-2,1.008602E-2,5.1370826E-2,-5.7882834E-2,1.5898896E-2,-5.7853978E-2,1.2082978E0,6.177889E-2,-5.505084E-2,8.8182247E-1,1.3075974E0,1.350055E0,-1.0125932E0,7.225295E-2,4.3091036E-2,6.778371E-2,1.975356E-2,6.5802686E-2,6.0418356E-2,6.810946E-2,1.624006E-2,-5.141716E-2,3.0267E-2],"categories":[],"categories_nodes":[],"categories_segments":[],"categories_sizes":[],"default_left":[0,0,0,0,0,0,0,0,0,0,0,0,0,0,0,0,0,0,0,0,0,0,0,0,0,0,0,0,0,0,0,0,0,0,0,0,0,0,0,0,0,0,0,0,0],"id":19,"left_children":[1,3,5,7,9,11,-1,13,-1,15,17,19,21,23,25,27,-1,-1,-1,29,31,33,-1,-1,-1,-1,-1,-1,35,-1,-1,37,39,41,43,-1,-1,-1,-1,-1,-1,-1,-1,-1,-1],"loss_changes":[5.2886016E3,2.0611106E3,1.3204749E3,3.9931274E2,1.2019214E2,4.3311865E2,0E0,7.6615685E1,0E0,4.067871E1,1.5233597E1,5.6322266E1,2.0392325E2,2.2491837E0,3.9487762E0,3.1195673E2,0E0,0E0,0E0,3.2947197E1,4.8604492E1,2.7919046E2,0E0,0E0,0E0,0E0,0E0,0E0,4.043892E0,0E0,0E0,7.081192E1,6.269531E-1,4.042511E-1,5.4397736E0,0E0,0E0,0E0,0E0,0E0,0E0,0E0,0E0,0E0,0E0],"parents":[2147483647,0,0,1,1,2,2,3,3,4,4,5,5,7,7,9,9,10,10,11,11,12,12,13,13,14,14,15,15,19,19,20,20,21,21,28,28,31,31,32,32,33,33,34,34],"right_children":[2,4,6,8,10,12,-1,14,-1,16,18,20,22,24,26,28,-1,-1,-1,30,32,34,-1,-1,-1,-1,-1,-1,36,-1,-1,38,40,42,44,-1,-1,-1,-1,-1,-1,-1,-1,-1,-1],"split_conditions":[-5.133277E-1,-6.2511057E-1,2.254553E0,2.254553E0,2.5780022E-1,2.6719108E0,-5.772856E-2,-3.3513978E-1,-5.7708897E-2,1.3074166E-1,2.254553E0,-1.182197E0,2.7191785E-1,-1.1704534E0,4.413293E-1,-1.182197E0,-5.810923E-2,8.046397E-2,-4.2755675E-2,1.7365757E0,-3.3861E-1,1.78007E-2,6.8932705E-2,1.008602E-2,5.1370826E-2,-5.7882834E-2,1.5898896E-2,-5.7853978E-2,-1.9396359E-1,6.177889E-2,-5.505084E-2,-1.6572836E-1,2.3762348E0,1.8601673E0,2.2336063E0,7.225295E-2,4.3091036E-2,6.778371E-2,1.975356E-2,6.5802686E-2,6.0418356E-2,6.810946E-2,1.624006E-2,-5.141716E-2,3.0267E-2],"split_indices":[6,7,0,0,4,6,0,4,0,4,0,4,4,3,4,4,0,0,0,2,6,4,0,0,0,0,0,0,4,0,0,4,6,2,7,0,0,0,0,0,0,0,0,0,0],"split_type":[0,0,0,0,0,0,0,0,0,0,0,0,0,0,0,0,0,0,0,0,0,0,0,0,0,0,0,0,0,0,0,0,0,0,0,0,0,0,0,0,0,0,0,0,0],"sum_hessian":[9.730244E3,6.1415684E3,3.588676E3,2.7877217E3,3.3538467E3,3.315172E3,2.735038E2,2.5424832E3,2.452385E2,3.3339548E3,1.989199E1,2.9734429E3,3.4172928E2,2.4976885E3,4.4794617E1,4.817108E2,2.852244E3,1.763192E1,2.2600708E0,2.4124866E1,2.9493179E3,2.551021E2,8.662719E1,2.4953245E3,2.3638964E0,4.3301994E1,1.4926217E0,4.1823282E2,6.347798E1,8.504411E0,1.5620456E1,3.0833502E2,2.640983E3,6.705795E1,1.8804416E2,3.5825993E1,2.765199E1,1.5533319E2,1.5300182E2,2.4222979E3,2.1868512E2,6.594879E1,1.1091564E0,1.8659216E2,1.4519944E0],"tree_param":{"num_deleted":"0","num_feature":"9","num_nodes":"45","size_leaf_vector":"1"}},{"base_weights":[-3.2824953E-3,-5.5206853E-1,9.380442E-1,7.178737E-2,-1.0915349E0,1.0879527E0,-1.5510544E-1,-1.1206887E0,1.7315027E-1,-1.1063182E0,1.3133334E0,1.2242666E0,-3.2161623E-2,-8.842726E-1,9.776301E-1,-5.7348102E-2,3.9993957E-2,1.0133329E-2,-1.1079305E0,-8.3641213E-1,-5.7626653E-2,-1.5456001E-1,7.832493E-2,-2.740151E-1,1.2381648E0,-4.1569033E-1,6.716593E-2,-1.0866492E0,5.95359E-2,6.596923E-2,-5.057648E-2,-5.6218673E-2,-5.0677407E-1,-5.7401326E-2,1.0465194E0,2.2489674E-2,-2.6639683E-2,-5.2836772E-2,6.0700353E-2,8.5378474E-1,1.2848203E0,1.0032688E0,-9.577902E-1,-1.1308969E0,5.3738263E-2,-7.830229E-3,-3.1539526E-2,6.928061E-2,3.1362787E-2,6.624022E-2,1.7988011E-2,6.4694166E-2,5.8497813E-2,-4.6652224E-2,6.5588824E-2,-5.6301154E-2,-3.7534866E-2,3.700603E-2,-5.722735E-2],"categories":[],"categories_nodes":[],"categories_segments":[],"categories_sizes":[],"default_left":[0,0,0,0,0,0,0,0,0,0,0,0,0,0,0,0,0,0,0,0,0,0,0,0,0,0,0,0,0,0,0,0,0,0,0,0,0,0,0,0,0,0,0,0,0,0,0,0,0,0,0,0,0,0,0,0,0,0,0],"id":20,"left_children":[1,3,5,7,9,11,13,15,17,19,21,23,25,27,29,-1,-1,-1,31,33,-1,35,-1,37,39,41,-1,43,-1,-1,-1,-1,45,-1,47,-1,-1,-1,-1,49,51,53,55,57,-1,-1,-1,-1,-1,-1,-1,-1,-1,-1,-1,-1,-1,-1,-1],"loss_changes":[4.904652E3,2.0186045E3,5.7316943E2,3.3649277E2,1.1580493E2,4.6956274E2,3.498762E2,1.1922882E1,9.721998E1,3.89187E1,7.714981E0,5.742578E1,1.7707106E2,1.0946681E2,1.1415378E2,0E0,0E0,0E0,2.7618408E-3,2.776058E2,0E0,1.1238636E0,0E0,3.1582714E1,4.7618652E1,2.0280916E2,0E0,2.3712189E1,0E0,0E0,0E0,0E0,4.7248244E-2,0E0,8.715042E0,0E0,0E0,0E0,0E0,6.863655E1,1.0056152E0,4.4847404E1,5.787552E0,6.746704E0,0E0,0E0,0E0,0E0,0E0,0E0,0E0,0E0,0E0,0E0,0E0,0E0,0E0,0E0,0E0],"parents":[2147483647,0,0,1,1,2,2,3,3,4,4,5,5,6,6,7,7,8,8,9,9,10,10,11,11,12,12,13,13,14,14,18,18,19,19,21,21,23,23,24,24,25,25,27,27,32,32,34,34,39,39,40,40,41,41,42,42,43,43],"right_children":[2,4,6,8,10,12,14,16,18,20,22,24,26,28,30,-1,-1,-1,32,34,-1,36,-1,38,40,42,-1,44,-1,-1,-1,-1,46,-1,48,-1,-1,-1,-1,50,52,54,56,58,-1,-1,-1,-1,-1,-1,-1,-1,-1,-1,-1,-1,-1,-1,-1],"split_conditions":[-5.133277E-1,-6.2511057E-1,2.1354437E0,5.1888764E-1,2.5780022E-1,2.6719108E0,-3.1438047E-1,-7.618318E-1,5.3330153E-1,1.02506414E-1,-3.5166806E-1,-1.182197E0,2.7191785E-1,-4.0891472E-1,2.395186E0,-5.7348102E-2,3.9993957E-2,1.0133329E-2,-5.2676755E-1,-1.182197E0,-5.7626653E-2,-4.883893E-1,7.832493E-2,-1.1577611E0,-3.3861E-1,1.78007E-2,6.716593E-2,-4.4383444E-2,5.95359E-2,6.596923E-2,-5.057648E-2,-5.6218673E-2,7.305175E-1,-5.7401326E-2,-1.7984597E-1,2.2489674E-2,-2.6639683E-2,-5.2836772E-2,6.0700353E-2,-1.6572836E-1,2.3896744E0,-1.1704534E0,2.6987906E0,-1.0399121E-1,5.3738263E-2,-7.830229E-3,-3.1539526E-2,6.928061E-2,3.1362787E-2,6.624022E-2,1.7988011E-2,6.4694166E-2,5.8497813E-2,-4.6652224E-2,6.5588824E-2,-5.6301154E-2,-3.7534866E-2,3.700603E-2,-5.722735E-2],"split_indices":[6,7,4,1,4,6,7,7,1,4,7,4,4,3,7,0,0,0,6,4,0,7,0,3,6,4,0,5,0,0,0,0,5,0,4,0,0,0,0,4,6,3,6,5,0,0,0,0,0,0,0,0,0,0,0,0,0,0,0],"split_type":[0,0,0,0,0,0,0,0,0,0,0,0,0,0,0,0,0,0,0,0,0,0,0,0,0,0,0,0,0,0,0,0,0,0,0,0,0,0,0,0,0,0,0,0,0,0,0,0,0,0,0,0,0,0,0,0,0,0,0],"sum_hessian":[9.492338E3,5.9967144E3,3.4956235E3,2.7812527E3,3.2154617E3,3.0740674E3,4.2155615E2,2.1710315E2,2.5641494E3,3.1963528E3,1.9108913E1,2.7404692E3,3.3359824E2,2.5659778E2,1.6495837E2,2.1457062E2,2.5325298E0,2.5072244E3,5.6925056E1,4.7007822E2,2.7262744E3,2.8681862E0,1.6240728E1,2.501502E1,2.715454E3,2.614072E2,7.219106E1,2.3422939E2,2.2368397E1,1.4105981E2,2.3898556E1,5.456232E1,2.3627381E0,4.036644E2,6.6413826E1,1.0312414E0,1.8369448E0,1.6582325E1,8.432694E0,2.960114E2,2.4194426E3,7.20262E1,1.8938098E2,2.2999774E2,4.2316504E0,1.2097354E0,1.1530027E0,3.544317E1,3.0970655E1,1.50673E2,1.4533841E2,2.2329915E3,1.8645114E2,9.620407E0,6.2405792E1,1.020461E2,8.733489E1,1.2803403E0,2.2871739E2],"tree_param":{"num_deleted":"0","num_feature":"9","num_nodes":"59","size_leaf_vector":"1"}},{"base_weights":[-2.8089683E-3,-3.2757297E-1,5.701704E-1,2.8588945E-1,-9.84508E-1,8.0041665E-1,-5.697095E-2,1.3941844E-1,1.1964462E0,-1.1332026E0,-3.6395186E-1,4.870153E-1,6.5870345E-2,1.7607062E-1,-5.631745E-2,5.660196E-4,1.2006726E0,-7.584394E-1,-1.1382233E0,1.1108655E0,-5.6933273E-2,1.0472921E0,-9.749413E-1,2.046019E-1,-1.1119629E0,1.2474588E0,1.0760758E0,-5.801356E-2,6.539665E-2,-5.709628E-2,-9.3296725E-1,-5.489366E-2,6.545031E-2,1.2750342E0,2.6760003E-1,-1.0384145E0,1.2066325E0,1.018872E-2,4.2975638E-2,-5.806865E-2,3.474562E-2,1.782406E-2,6.251371E-2,6.1516475E-2,7.3411623E-3,5.3693373E-2,-5.5084962E-2,6.431113E-2,4.156554E-2,-1.2355337E-2,2.5516434E-2,4.1686404E-2,-5.39047E-2,6.804075E-3,6.440007E-2],"categories":[],"categories_nodes":[],"categories_segments":[],"categories_sizes":[],"default_left":[0,0,0,0,0,0,0,0,0,0,0,0,0,0,0,0,0,0,0,0,0,0,0,0,0,0,0,0,0,0,0,0,0,0,0,0,0,0,0,0,0,0,0,0,0,0,0,0,0,0,0,0,0,0,0],"id":21,"left_children":[1,3,5,7,9,11,-1,13,15,17,19,21,-1,23,-1,-1,25,27,29,31,-1,33,35,37,39,41,43,-1,-1,-1,45,-1,-1,47,49,51,53,-1,-1,-1,-1,-1,-1,-1,-1,-1,-1,-1,-1,-1,-1,-1,-1,-1,-1],"loss_changes":[1.720749E3,2.3788047E3,1.3176855E3,4.069779E2,2.625879E2,4.7713306E2,0E0,1.2225213E2,2.1044922E0,3.461914E0,6.3243445E2,1.5060735E3,0E0,9.422061E1,0E0,0E0,1.1140137E0,2.9240227E1,6.569824E-1,8.491817E1,0E0,2.3562048E2,7.181772E1,1.1813736E0,5.769394E0,3.069458E-1,1.7351303E1,0E0,0E0,0E0,1.6630856E1,0E0,0E0,4.0352783E0,3.781459E1,3.7724365E1,1.1200581E0,0E0,0E0,0E0,0E0,0E0,0E0,0E0,0E0,0E0,0E0,0E0,0E0,0E0,0E0,0E0,0E0,0E0,0E0],"parents":[2147483647,0,0,1,1,2,2,3,3,4,4,5,5,7,7,8,8,9,9,10,10,11,11,13,13,16,16,17,17,18,18,19,19,21,21,22,22,23,23,24,24,25,25,26,26,30,30,33,33,34,34,35,35,36,36],"right_children":[2,4,6,8,10,12,-1,14,16,18,20,22,-1,24,-1,-1,26,28,30,32,-1,34,36,38,40,42,44,-1,-1,-1,46,-1,-1,48,50,52,54,-1,-1,-1,-1,-1,-1,-1,-1,-1,-1,-1,-1,-1,-1,-1,-1,-1,-1],"split_conditions":[-3.6409727E-1,1.589769E-1,2.254553E0,-1.1539618E0,2.7191785E-1,2.7191785E-1,-5.697095E-2,2.254553E0,-1.5729316E0,-5.7539374E-1,2.254553E0,2.1544737E-1,6.5870345E-2,-6.2511057E-1,-5.631745E-2,5.660196E-4,-1.5161073E-1,-7.618318E-1,-5.6296456E-1,-3.6050457E-1,-5.6933273E-2,-1.233755E-1,8.857011E-1,-1.1704534E0,-5.6296456E-1,-1.1577611E0,-5.6296456E-1,-5.801356E-2,6.539665E-2,-5.709628E-2,-3.7652647E-1,-5.489366E-2,6.545031E-2,-1.6572836E-1,-3.8669776E-2,-6.373763E-1,9.364704E-1,1.018872E-2,4.2975638E-2,-5.806865E-2,3.474562E-2,1.782406E-2,6.251371E-2,6.1516475E-2,7.3411623E-3,5.3693373E-2,-5.5084962E-2,6.431113E-2,4.156554E-2,-1.2355337E-2,2.5516434E-2,4.1686404E-2,-5.39047E-2,6.804075E-3,6.440007E-2],"split_indices":[7,4,0,4,4,4,0,0,2,7,0,4,0,7,0,0,4,7,7,0,0,4,3,3,7,3,7,0,0,0,7,0,0,4,4,3,3,0,0,0,0,0,0,0,0,0,0,0,0,0,0,0,0,0,0],"split_type":[0,0,0,0,0,0,0,0,0,0,0,0,0,0,0,0,0,0,0,0,0,0,0,0,0,0,0,0,0,0,0,0,0,0,0,0,0,0,0,0,0,0,0,0,0,0,0,0,0,0,0,0,0,0,0],"sum_hessian":[9.245206E3,5.9009707E3,3.3442349E3,3.0517422E3,2.8492288E3,2.9477637E3,3.9647098E2,2.6298594E3,4.2188275E2,2.297812E3,5.5141656E2,1.8364457E3,1.1113181E3,2.5566877E3,7.317181E1,1.5122541E0,4.203705E2,3.2387367E1,2.2654248E3,1.8975233E2,3.6166425E2,1.327848E3,5.0859766E2,2.5021045E3,5.458306E1,2.9906088E2,1.2130962E2,2.7481707E1,4.9056606E0,2.2208044E3,4.462019E1,1.5247097E1,1.7450523E2,1.027181E3,3.00667E2,4.947275E2,1.3870162E1,2.5002566E3,1.8479877E0,5.347792E1,1.1051388E0,1.3440006E0,2.977169E2,1.0376147E2,1.7548155E1,3.0445938E0,4.1575596E1,1.00006586E3,2.7115154E1,9.634632E1,2.0432068E2,9.852636E0,4.8487485E2,1.1685266E0,1.2701635E1],"tree_param":{"num_deleted":"0","num_feature":"9","num_nodes":"55","size_leaf_vector":"1"}},{"base_weights":[-6.396687E-3,-5.291565E-1,9.075105E-1,4.8281554E-2,-1.0737337E0,1.0688475E0,-5.645993E-2,1.4704555E-1,-5.64256E-2,-1.0845413E0,-2.8302276E-1,1.1851361E0,7.5840466E-2,1.6597418E-1,-9.7734535E-1,-1.0856338E0,1.3667342E-2,8.26243E-1,-7.5520355E-1,7.839795E-1,1.2326901E0,-6.9831896E-1,4.5245582E-1,1.3776015E-1,1.8515782E-1,-5.6196064E-2,4.3079525E-2,-5.5422932E-2,-1.0263395E0,4.186241E-2,-3.5192415E-2,-1.4206111E-2,9.5872146E-1,-6.0568918E-3,-8.965008E-1,1.2423241E0,5.508876E-1,1.536763E-1,1.2477239E0,-9.078476E-1,4.6807036E-1,-7.4679786E-1,4.832654E-1,7.7910195E-3,3.9180852E-3,1.0051168E-2,8.171497E-3,-5.2852828E-2,1.2354697E-2,5.600291E-2,2.89563E-2,-2.1843446E-2,3.1775516E-2,-4.992878E-2,-1.7656049E-2,-2.3322089E-2,6.381185E-2,1.38184605E-2,3.39952E-2,5.6018796E-2,-4.7042727E-2,6.2952496E-2,5.5460375E-2,2.8287856E-2,-4.663187E-2,-1.8531289E-2,2.8886283E-2,-4.7505837E-2,-5.4847025E-3,2.2292582E-2,6.181688E-2],"categories":[],"categories_nodes":[],"categories_segments":[],"categories_sizes":[],"default_left":[0,0,0,0,0,0,0,0,0,0,0,0,0,0,0,0,0,0,0,0,0,0,0,0,0,0,0,0,0,0,0,0,0,0,0,0,0,0,0,0,0,0,0,0,0,0,0,0,0,0,0,0,0,0,0,0,0,0,0,0,0,0,0,0,0,0,0,0,0,0,0],"id":22,"left_children":[1,3,5,7,9,11,-1,13,-1,15,17,19,21,23,25,27,29,31,33,35,37,39,41,43,45,-1,-1,-1,47,-1,-1,-1,49,51,53,55,57,59,61,63,65,67,69,-1,-1,-1,-1,-1,-1,-1,-1,-1,-1,-1,-1,-1,-1,-1,-1,-1,-1,-1,-1,-1,-1,-1,-1,-1,-1,-1,-1],"loss_changes":[4.296896E3,1.7991742E3,1.0765825E3,3.2301917E2,2.4855469E1,3.5013892E2,0E0,5.4724537E1,0E0,3.4997559E0,2.2128252E1,5.0825195E1,9.33276E1,1.3395462E0,1.2447788E1,2.7890625E0,2.878546E0,2.1458473E0,3.0982094E0,3.0348648E1,3.9152832E1,2.6036499E1,8.312832E0,1.0870094E0,4.836731E-1,0E0,0E0,0E0,3.233557E1,0E0,0E0,0E0,6.2190056E-2,1.8418701E0,1.015213E0,6.2236176E0,6.695362E0,3.752591E1,2.3562012E0,3.7853622E0,1.7424905E0,6.4493656E-1,5.3777695E0,0E0,0E0,0E0,0E0,0E0,0E0,0E0,0E0,0E0,0E0,0E0,0E0,0E0,0E0,0E0,0E0,0E0,0E0,0E0,0E0,0E0,0E0,0E0,0E0,0E0,0E0,0E0,0E0],"parents":[2147483647,0,0,1,1,2,2,3,3,4,4,5,5,7,7,9,9,10,10,11,11,12,12,13,13,14,14,15,15,16,16,17,17,18,18,19,19,20,20,21,21,22,22,23,23,24,24,28,28,32,32,33,33,34,34,35,35,36,36,37,37,38,38,39,39,40,40,41,41,42,42],"right_children":[2,4,6,8,10,12,-1,14,-1,16,18,20,22,24,26,28,30,32,34,36,38,40,42,44,46,-1,-1,-1,48,-1,-1,-1,50,52,54,56,58,60,62,64,66,68,70,-1,-1,-1,-1,-1,-1,-1,-1,-1,-1,-1,-1,-1,-1,-1,-1,-1,-1,-1,-1,-1,-1,-1,-1,-1,-1,-1,-1],"split_conditions":[-5.133277E-1,-6.2511057E-1,2.254553E0,2.254553E0,-5.2676755E-1,2.6719108E0,-5.645993E-2,-1.1323766E0,-5.64256E-2,2.2460356E0,-8.01481E-2,-3.3861E-1,2.6853507E0,8.438273E-2,-7.618318E-1,-5.6296456E-1,2.254553E0,-1.2982838E0,-6.622229E-2,-1.0934801E0,-1.1577611E0,-5.3810614E-1,-1.3669457E0,-3.5476223E-2,5.238655E-1,-5.6196064E-2,4.3079525E-2,-5.5422932E-2,8.3493185E-1,4.186241E-2,-3.5192415E-2,-1.4206111E-2,-1.0457939E0,6.30239E-1,6.1916256E-1,-1.1292448E0,-4.595684E-1,1.8189701E0,2.3896744E0,-5.878229E-1,-1.1884246E0,2.8331888E0,2.2460356E0,7.7910195E-3,3.9180852E-3,1.0051168E-2,8.171497E-3,-5.2852828E-2,1.2354697E-2,5.600291E-2,2.89563E-2,-2.1843446E-2,3.1775516E-2,-4.992878E-2,-1.7656049E-2,-2.3322089E-2,6.381185E-2,1.38184605E-2,3.39952E-2,5.6018796E-2,-4.7042727E-2,6.2952496E-2,5.5460375E-2,2.8287856E-2,-4.663187E-2,-1.8531289E-2,2.8886283E-2,-4.7505837E-2,-5.4847025E-3,2.2292582E-2,6.181688E-2],"split_indices":[6,7,0,0,6,6,0,3,0,7,5,6,6,8,7,7,0,2,3,5,3,7,2,8,8,0,0,0,3,0,0,0,5,7,3,5,6,2,6,7,2,6,7,0,0,0,0,0,0,0,0,0,0,0,0,0,0,0,0,0,0,0,0,0,0,0,0,0,0,0,0],"split_type":[0,0,0,0,0,0,0,0,0,0,0,0,0,0,0,0,0,0,0,0,0,0,0,0,0,0,0,0,0,0,0,0,0,0,0,0,0,0,0,0,0,0,0,0,0,0,0,0,0,0,0,0,0,0,0,0,0,0,0,0,0,0,0,0,0,0,0,0,0,0,0],"sum_hessian":[8.991946E3,5.7203154E3,3.2716304E3,2.7768335E3,2.9434822E3,3.0319324E3,2.3969804E2,2.5626357E3,2.1419763E2,2.9034258E3,4.0056396E1,2.713919E3,3.180134E2,2.5210474E3,4.158835E1,2.9005518E3,2.873965E0,1.1735964E1,2.8320435E1,2.8947238E2,2.4244465E3,1.0379705E2,2.1421635E2,1.02367487E3,1.4973726E3,3.8878296E1,2.7100506E0,2.0815723E3,8.189796E2,1.2603898E0,1.6135752E0,1.1289588E0,1.0607005E1,4.659423E0,2.366101E1,9.612516E1,1.9334723E2,3.3469707E1,2.3909768E3,8.8178444E1,1.5618602E1,4.7834363E0,2.094329E2,7.8375037E2,2.3992448E2,8.606674E2,6.367052E2,7.9985583E2,1.9123743E1,6.0745287E0,4.5324764E0,2.978453E0,1.6809697E0,1.9213932E1,4.447079E0,1.6224195E0,9.450275E1,6.2820744E1,1.3052649E2,1.7760159E1,1.5709547E1,2.2027751E3,1.8820155E2,1.097813E0,8.7080635E1,1.5307529E0,1.408785E1,3.2537587E0,1.5296776E0,2.0103714E2,8.395781E0],"tree_param":{"num_deleted":"0","num_feature":"9","num_nodes":"71","size_leaf_vector":"1"}},{"base_weights":[-4.6844855E-3,-5.120536E-1,8.903548E-1,6.3232398E-3,-1.1116905E0,1.0283759E0,-1.3454083E-1,1.4133179E-1,-1.1006277E0,-1.1135217E0,4.6532284E-2,1.1637403E0,-5.2852485E-2,-8.472171E-1,9.5749956E-1,-1.0414064E0,1.7087694E-1,-5.6193937E-2,6.5890354E-1,-5.6447756E-2,-8.99429E-1,7.5032425E-1,1.2147584E0,-4.1230544E-1,6.445145E-2,-1.045106E0,5.854503E-2,6.310946E-2,-4.8498385E-2,-5.5423923E-2,5.7525146E-1,1.4755148E-1,1.106561E0,5.2400727E-2,-1.6878486E-2,-1.103071E0,1.3119669E0,1.2673268E0,2.4768002E-1,-2.4178685E-1,1.2289394E0,9.793651E-1,-9.4147724E-1,7.1257454E-1,-5.5542417E-2,4.367195E-2,-7.059896E-5,8.261352E-3,-5.4319043E-2,7.071639E-2,3.0343434E-2,-5.56353E-2,2.102552E-3,-1.4527038E-2,7.457315E-2,6.370977E-2,2.6714006E-2,-8.748486E-2,6.508917E-2,-5.299591E-2,5.748665E-2,4.0319465E-2,6.1587125E-2,-4.9970508E-2,6.2207855E-2,-5.4944944E-2,-3.8083307E-2,-1.177465E-3,5.2715957E-2],"categories":[],"categories_nodes":[],"categories_segments":[],"categories_sizes":[],"default_left":[0,0,0,0,0,0,0,0,0,0,0,0,0,0,0,0,0,0,0,0,0,0,0,0,0,0,0,0,0,0,0,0,0,0,0,0,0,0,0,0,0,0,0,0,0,0,0,0,0,0,0,0,0,0,0,0,0,0,0,0,0,0,0,0,0,0,0,0,0],"id":23,"left_children":[1,3,5,7,9,11,13,15,17,19,-1,21,23,25,27,29,31,-1,33,-1,35,37,39,41,-1,43,-1,-1,-1,-1,45,47,49,-1,-1,51,53,55,57,59,61,63,65,67,-1,-1,-1,-1,-1,-1,-1,-1,-1,-1,-1,-1,-1,-1,-1,-1,-1,-1,-1,-1,-1,-1,-1,-1,-1],"loss_changes":[3.9828142E3,1.7399102E3,4.489856E2,4.4896884E2,1.0742432E1,4.0936426E2,2.9458978E2,9.374341E1,1.4101013E1,7.553711E0,0E0,5.1510254E1,1.5107817E2,9.265491E1,8.904205E1,7.728836E0,5.6869896E1,0E0,2.2496562E0,0E0,8.219325E1,7.1316376E1,4.5961914E1,1.8276947E2,0E0,2.4945374E1,0E0,0E0,0E0,0E0,5.623994E-1,5.5812878E1,8.892632E0,0E0,0E0,1.8642578E0,4.913679E0,2.1514893E-3,2.9915338E2,2.6438076E1,1.6003418E0,3.7143723E1,4.2415314E0,2.073964E0,0E0,0E0,0E0,0E0,0E0,0E0,0E0,0E0,0E0,0E0,0E0,0E0,0E0,0E0,0E0,0E0,0E0,0E0,0E0,0E0,0E0,0E0,0E0,0E0,0E0],"parents":[2147483647,0,0,1,1,2,2,3,3,4,4,5,5,6,6,7,7,8,8,9,9,11,11,12,12,13,13,14,14,15,15,16,16,18,18,20,20,21,21,22,22,23,23,25,25,30,30,31,31,32,32,35,35,36,36,37,37,38,38,39,39,40,40,41,41,42,42,43,43],"right_children":[2,4,6,8,10,12,14,16,18,20,-1,22,24,26,28,30,32,-1,34,-1,36,38,40,42,-1,44,-1,-1,-1,-1,46,48,50,-1,-1,52,54,56,58,60,62,64,66,68,-1,-1,-1,-1,-1,-1,-1,-1,-1,-1,-1,-1,-1,-1,-1,-1,-1,-1,-1,-1,-1,-1,-1,-1,-1],"split_conditions":[-5.133277E-1,1.3074166E-1,2.1354437E0,2.0471683E0,2.2625022E0,2.6719108E0,-3.1438047E-1,-1.4630725E0,-1.1704534E0,2.4368261E-1,4.6532284E-2,-3.3861E-1,2.7191785E-1,-4.0891472E-1,2.395186E0,-1.1704534E0,-1.0269032E0,-5.6193937E-2,1.1141627E0,-5.6447756E-2,-3.5166806E-1,-1.6572836E-1,-1.182197E0,1.78007E-2,6.445145E-2,-5.358378E-1,5.854503E-2,6.310946E-2,-4.8498385E-2,-5.5423923E-2,5.8495644E-2,-2.8208646E-1,-5.402074E-1,5.2400727E-2,-1.6878486E-2,-5.402074E-1,2.5780022E-1,-2.3631646E-1,3.6830807E-3,-1.1577611E0,-1.1539618E0,-1.1704534E0,2.6987906E0,-6.6239816E-1,-5.5542417E-2,4.367195E-2,-7.059896E-5,8.261352E-3,-5.4319043E-2,7.071639E-2,3.0343434E-2,-5.56353E-2,2.102552E-3,-1.4527038E-2,7.457315E-2,6.370977E-2,2.6714006E-2,-8.748486E-2,6.508917E-2,-5.299591E-2,5.748665E-2,4.0319465E-2,6.1587125E-2,-4.9970508E-2,6.2207855E-2,-5.4944944E-2,-3.8083307E-2,-1.177465E-3,5.2715957E-2],"split_indices":[6,4,4,7,4,6,7,2,3,4,0,6,4,3,7,3,4,0,3,0,7,4,4,4,0,3,0,0,0,0,7,2,6,0,0,6,4,4,4,3,4,3,6,7,0,0,0,0,0,0,0,0,0,0,0,0,0,0,0,0,0,0,0,0,0,0,0,0,0],"split_type":[0,0,0,0,0,0,0,0,0,0,0,0,0,0,0,0,0,0,0,0,0,0,0,0,0,0,0,0,0,0,0,0,0,0,0,0,0,0,0,0,0,0,0,0,0,0,0,0,0,0,0,0,0,0,0,0,0,0,0,0,0,0,0,0,0,0,0,0,0],"sum_hessian":[8.768487E3,5.5964604E3,3.1720264E3,3.0021436E3,2.594317E3,2.7955505E3,3.7647577E2,2.6765698E3,3.2557376E2,2.5924473E3,1.8696263E0,2.4844353E3,3.1111526E2,2.2794247E2,1.485333E2,6.439731E1,2.6121726E3,3.2168417E2,3.8895755E0,2.4141443E3,1.7830307E2,2.746406E2,2.209795E3,2.4593011E2,6.518514E1,2.0802634E2,1.9916132E1,1.2855653E2,1.9976763E1,6.2133835E1,2.26347E0,2.5497676E3,6.2404884E1,2.760075E0,1.1295005E0,1.6372705E2,1.4576027E1,1.3463666E2,1.4000394E2,2.1152527E1,2.1886423E3,6.751678E1,1.7841335E2,7.14551E0,2.0088083E2,1.1527505E0,1.1107194E0,2.514613E3,3.5154675E1,3.7486244E1,2.491864E1,1.6238902E2,1.3380208E0,1.405886E0,1.3170141E1,1.3265546E2,1.9812026E0,4.8135006E1,9.1868935E1,1.3470797E1,7.6817303E0,1.6325628E1,2.1723167E3,7.6410813E0,5.9875698E1,9.240386E1,8.6009476E1,2.5607343E0,4.584776E0],"tree_param":{"num_deleted":"0","num_feature":"9","num_nodes":"69","size_leaf_vector":"1"}},{"base_weights":[-1.0913161E-2,3.3795506E-1,-3.9895484E-1,-3.2174926E-2,1.0387433E0,-1.0550601E0,6.926451E-1,1.2702745E-1,-5.5868793E-2,1.2172407E0,4.275828E-1,-1.0686978E0,-6.5857154E-1,1.2379717E0,-5.585305E-2,1.4791235E-1,-8.564926E-1,1.2263088E0,8.956903E-1,-1.8721534E-2,6.327038E-1,-1.0111746E0,-5.4050144E-2,-9.2072475E-1,1.032765E0,-5.3276088E-2,6.330117E-2,1.4554936E-1,5.1468857E-2,-5.5994738E-2,9.308553E-1,6.914961E-1,6.139263E-2,6.1834313E-2,6.1486725E-2,6.4756864E-1,-1.1720226E-1,8.03439E-1,4.8906866E-1,5.818698E-1,-5.3671014E-2,-5.621225E-1,-1.0602663E0,1.1631762E0,5.133318E-3,1.1730162E-2,6.9836653E-3,5.1152647E-2,9.570834E-3,-6.269429E-3,4.8702624E-2,1.7811563E-2,-3.277103E-2,5.012138E-2,-2.3796504E-2,-2.4476944E-2,4.999399E-3,3.0513296E-2,5.004832E-2,-1.6702825E-2,3.1107515E-2,7.3768133E-3,6.010734E-2,-3.2890048E-2,9.794046E-3,-1.9735118E-2,-5.580883E-2,8.689626E-3,6.3026115E-2],"categories":[],"categories_nodes":[],"categories_segments":[],"categories_sizes":[],"default_left":[0,0,0,0,0,0,0,0,0,0,0,0,0,0,0,0,0,0,0,0,0,0,0,0,0,0,0,0,0,0,0,0,0,0,0,0,0,0,0,0,0,0,0,0,0,0,0,0,0,0,0,0,0,0,0,0,0,0,0,0,0,0,0,0,0,0,0,0,0],"id":24,"left_children":[1,3,5,7,9,11,13,15,-1,17,19,21,23,25,-1,27,29,31,33,35,37,39,-1,41,43,-1,-1,45,-1,-1,47,49,-1,-1,51,53,55,57,59,61,-1,63,65,67,-1,-1,-1,-1,-1,-1,-1,-1,-1,-1,-1,-1,-1,-1,-1,-1,-1,-1,-1,-1,-1,-1,-1,-1,-1],"loss_changes":[1.1576455E3,1.1680325E3,2.9001997E3,5.0939603E2,1.692627E2,1.2970703E1,1.5018411E3,5.29458E1,0E0,2.4123535E0,3.2359337E1,6.3623047E-1,3.9392914E1,7.687439E1,0E0,5.096596E0,2.6284355E1,1.15600586E-1,1.0372902E1,7.4402432E0,5.5445404E0,4.4852966E1,0E0,3.1867218E0,1.3490152E0,0E0,0E0,1.2823753E0,0E0,0E0,3.1088495E-1,1.4266944E0,0E0,0E0,2.7079902E0,6.3001113E0,8.024713E0,3.5507355E0,1.4891785E1,4.5159864E0,0E0,1.8189692E0,1.542469E0,7.9421234E-1,0E0,0E0,0E0,0E0,0E0,0E0,0E0,0E0,0E0,0E0,0E0,0E0,0E0,0E0,0E0,0E0,0E0,0E0,0E0,0E0,0E0,0E0,0E0,0E0,0E0],"parents":[2147483647,0,0,1,1,2,2,3,3,4,4,5,5,6,6,7,7,9,9,10,10,11,11,12,12,13,13,15,15,16,16,17,17,18,18,19,19,20,20,21,21,23,23,24,24,27,27,30,30,31,31,34,34,35,35,36,36,37,37,38,38,39,39,41,41,42,42,43,43],"right_children":[2,4,6,8,10,12,14,16,-1,18,20,22,24,26,-1,28,30,32,34,36,38,40,-1,42,44,-1,-1,46,-1,-1,48,50,-1,-1,52,54,56,58,60,62,-1,64,66,68,-1,-1,-1,-1,-1,-1,-1,-1,-1,-1,-1,-1,-1,-1,-1,-1,-1,-1,-1,-1,-1,-1,-1,-1,-1],"split_conditions":[1.589769E-1,-1.1577611E0,2.7191785E-1,2.254553E0,-1.233755E-1,2.4368261E-1,2.254553E0,-1.1704534E0,-5.5868793E-2,-1.6572836E-1,-5.2787397E-2,-2.0583773E-1,4.668548E-1,-3.6050457E-1,-5.585305E-2,-1.1411663E0,-1.1539618E0,-1.5729316E0,1.0380088E0,-1.0925788E-1,3.191832E-2,2.1544737E-1,-5.4050144E-2,3.7287092E-1,7.236304E-1,-5.3276088E-2,6.330117E-2,-3.551001E-1,5.1468857E-2,-5.5994738E-2,1.1954582E0,-2.946839E-1,6.139263E-2,6.1834313E-2,1.8630091E0,1.6345475E0,-9.5140256E-2,3.9671403E-1,4.6035938E-2,1.8721214E-1,-5.3671014E-2,2.4173383E-1,2.5780022E-1,-3.151471E-1,5.133318E-3,1.1730162E-2,6.9836653E-3,5.1152647E-2,9.570834E-3,-6.269429E-3,4.8702624E-2,1.7811563E-2,-3.277103E-2,5.012138E-2,-2.3796504E-2,-2.4476944E-2,4.999399E-3,3.0513296E-2,5.004832E-2,-1.6702825E-2,3.1107515E-2,7.3768133E-3,6.010734E-2,-3.2890048E-2,9.794046E-3,-1.9735118E-2,-5.580883E-2,8.689626E-3,6.3026115E-2],"split_indices":[4,3,4,0,4,4,0,3,0,4,4,3,3,0,0,5,4,2,3,4,4,4,0,5,8,0,0,8,0,0,5,3,0,0,3,3,4,5,4,4,0,5,4,8,0,0,0,0,0,0,0,0,0,0,0,0,0,0,0,0,0,0,0,0,0,0,0,0,0],"split_type":[0,0,0,0,0,0,0,0,0,0,0,0,0,0,0,0,0,0,0,0,0,0,0,0,0,0,0,0,0,0,0,0,0,0,0,0,0,0,0,0,0,0,0,0,0,0,0,0,0,0,0,0,0,0,0,0,0,0,0,0,0,0,0,0,0,0,0,0,0],"sum_hessian":[8.549375E3,4.501994E3,4.047381E3,2.9466426E3,1.5553517E3,2.5279763E3,1.5194048E3,2.5704348E3,3.762079E2,1.2030063E3,3.5234534E2,2.442276E3,8.570038E1,1.1678174E3,3.5158746E2,2.5178188E3,5.26159E1,1.1672738E3,3.5732533E1,1.1123274E2,2.411126E2,4.450294E2,1.9972466E3,7.459409E1,1.1106286E1,1.3605478E1,1.1542118E3,2.5122493E3,5.5695877E0,4.618328E1,6.432616E0,4.651946E0,1.1626218E3,2.5021898E1,1.0710632E1,1.3605634E1,9.7627106E1,1.0806501E2,1.3304758E2,1.6421019E1,4.2860837E2,2.230407E1,5.2290024E1,9.520764E0,1.5855215E0,1.5309586E2,2.3591533E3,5.378446E0,1.05417E0,1.3385029E0,3.3134432E0,7.946614E0,2.7640183E0,1.0421689E1,3.183945E0,3.5505264E1,6.212184E1,5.670224E1,5.1362774E1,1.8306938E1,1.1474064E2,1.0386198E1,6.03482E0,1.9921663E1,2.3824053E0,4.676768E0,4.7613255E1,1.1023409E0,8.418424E0],"tree_param":{"num_deleted":"0","num_feature":"9","num_nodes":"69","size_leaf_vector":"1"}},{"base_weights":[5.1860632E-5,-4.7902602E-1,8.546375E-1,1.44861275E-2,-1.09578E0,1.0041378E0,-5.5412035E-2,1.6496149E-1,-5.5528056E-2,-1.0983057E0,4.9296144E-2,1.1234107E0,3.674376E-2,1.4236361E-1,1.0246396E0,-5.5766314E-2,-8.60728E-1,6.611309E-1,1.1802126E0,-3.6875805E-1,6.304667E-2,1.5719908E-1,-1.0536546E0,6.8580344E-2,5.6052184E-1,2.870214E-1,-5.5287283E-2,6.167626E-2,1.7827317E-1,-3.5937256E-1,1.1936353E0,1.1875311E0,-8.961054E-1,8.115038E-3,3.9429567E-3,-5.3971767E-2,-8.671866E-3,6.3491784E-2,-6.657673E-2,-5.284772E-2,7.208585E-2,-8.288739E-2,5.9834983E-2,-5.219316E-2,5.417797E-2,6.0241085E-2,5.226648E-2,6.260419E-2,2.156683E-2,-5.393222E-2,-3.4953017E-2],"categories":[],"categories_nodes":[],"categories_segments":[],"categories_sizes":[],"default_left":[0,0,0,0,0,0,0,0,0,0,0,0,0,0,0,0,0,0,0,0,0,0,0,0,0,0,0,0,0,0,0,0,0,0,0,0,0,0,0,0,0,0,0,0,0,0,0,0,0,0,0],"id":25,"left_children":[1,3,5,7,9,11,-1,13,-1,15,-1,17,19,21,23,-1,25,27,29,31,-1,33,35,-1,37,39,-1,-1,41,43,45,47,49,-1,-1,-1,-1,-1,-1,-1,-1,-1,-1,-1,-1,-1,-1,-1,-1,-1,-1],"loss_changes":[3.4185776E3,1.628573E3,8.8130786E2,5.035196E2,1.3586914E1,3.2161523E2,0E0,5.0816864E1,0E0,8.647461E0,0E0,6.438501E1,1.5286989E2,4.554067E1,1.002523E1,0E0,4.6216667E1,7.546519E1,4.6075684E1,1.909718E2,0E0,9.970856E-1,5.26741E-1,0E0,4.2442802E1,4.7315304E1,0E0,0E0,2.81912E2,2.0746014E1,2.3737793E0,2.3396835E0,5.4829407E0,0E0,0E0,0E0,0E0,0E0,0E0,0E0,0E0,0E0,0E0,0E0,0E0,0E0,0E0,0E0,0E0,0E0,0E0],"parents":[2147483647,0,0,1,1,2,2,3,3,4,4,5,5,7,7,9,9,11,11,12,12,13,13,14,14,16,16,17,17,18,18,19,19,21,21,22,22,24,24,25,25,28,28,29,29,30,30,31,31,32,32],"right_children":[2,4,6,8,10,12,-1,14,-1,16,-1,18,20,22,24,-1,26,28,30,32,-1,34,36,-1,38,40,-1,-1,42,44,46,48,50,-1,-1,-1,-1,-1,-1,-1,-1,-1,-1,-1,-1,-1,-1,-1,-1,-1,-1],"split_conditions":[-5.133277E-1,1.3074166E-1,2.254553E0,2.254553E0,2.2625022E0,2.6719108E0,-5.5412035E-2,-1.0269032E0,-5.5528056E-2,2.5780022E-1,4.9296144E-2,-3.3861E-1,2.7191785E-1,-7.6272035E-1,-5.402074E-1,-5.5766314E-2,2.254553E0,-1.6572836E-1,-1.182197E0,1.78007E-2,6.304667E-2,7.635834E-1,-1.1577611E0,6.8580344E-2,-1.7984597E-1,-3.6050457E-1,-5.5287283E-2,6.167626E-2,3.6830807E-3,-1.1577611E0,2.4165542E0,-2.4552159E-2,2.6987906E0,8.115038E-3,3.9429567E-3,-5.3971767E-2,-8.671866E-3,6.3491784E-2,-6.657673E-2,-5.284772E-2,7.208585E-2,-8.288739E-2,5.9834983E-2,-5.219316E-2,5.417797E-2,6.0241085E-2,5.226648E-2,6.260419E-2,2.156683E-2,-5.393222E-2,-3.4953017E-2],"split_indices":[6,4,0,0,4,6,0,4,0,4,0,6,4,2,6,0,0,4,4,4,0,8,3,0,4,0,0,0,4,3,6,4,6,0,0,0,0,0,0,0,0,0,0,0,0,0,0,0,0,0,0],"split_type":[0,0,0,0,0,0,0,0,0,0,0,0,0,0,0,0,0,0,0,0,0,0,0,0,0,0,0,0,0,0,0,0,0,0,0,0,0,0,0,0,0,0,0,0,0,0,0,0,0,0,0],"sum_hessian":[8.347947E3,5.3494844E3,2.9984636E3,2.9721865E3,2.3772976E3,2.7867058E3,2.1175766E2,2.6223057E3,3.498807E2,2.3748887E3,2.408943E0,2.4806924E3,3.060135E2,2.556276E3,6.602982E1,2.212673E3,1.6221553E2,2.7283932E2,2.207853E3,2.3039574E2,7.5617744E1,2.5258142E3,3.0461788E1,3.6664623E1,2.9365202E1,2.850704E1,1.337085E2,1.2413329E2,1.4870602E2,1.8859726E1,2.1889934E3,5.7993996E1,1.7240175E2,2.370378E3,1.5543614E2,2.9375088E1,1.0867001E0,2.1597404E1,7.7677994E0,1.32129E1,1.529414E1,5.283223E1,9.5873795E1,1.29792595E1,5.880467E0,2.0288387E3,1.6015463E2,5.2828514E1,5.1654806E0,8.717259E1,8.522916E1],"tree_param":{"num_deleted":"0","num_feature":"9","num_nodes":"51","size_leaf_vector":"1"}},{"base_weights":[-8.7916135E-4,-4.6893442E-1,8.505484E-1,5.130982E-2,-1.0413928E0,-5.5041816E-2,9.789012E-1,-1.0723801E0,1.2600707E-1,-1.0526935E0,-2.4833037E-1,1.1144059E0,-4.9682144E-2,-5.511567E-2,5.467964E-1,1.4755553E-1,-1.0561644E0,-1.0535539E0,1.2470463E-2,7.5012374E-1,-6.602419E-1,6.8527937E-1,1.167501E0,-6.380377E-1,2.3307927E-1,-7.289207E-3,4.31123E-2,2.135778E-1,1.40777E-1,-1.5978621E-2,-5.3735424E-2,-5.3890634E-2,